{"learner":{"attributes":{"scikit_learn":"{\"_estimator_type\": \"classifier\"}"},"feature_names":["x0","y0","x1","y1","x2","y2","x3","y3","x4","y4","x5","y5","x6","y6","x7","y7","x8","y8","x9","y9","x10","y10","x11","y11","x12","y12","x13","y13","x14","y14","x15","y15","x16","y16"],"feature_types":["float","float","float","float","float","float","float","float","float","float","float","float","float","float","float","float","float","float","float","float","float","float","float","float","float","float","float","float","float","float","float","float","float","float"],"gradient_booster":{"model":{"gbtree_model_param":{"num_parallel_tree":"1","num_trees":"50"},"iteration_indptr":[0,1,2,3,4,5,6,7,8,9,10,11,12,13,14,15,16,17,18,19,20,21,22,23,24,25,26,27,28,29,30,31,32,33,34,35,36,37,38,39,40,41,42,43,44,45,46,47,48,49,50],"tree_info":[0,0,0,0,0,0,0,0,0,0,0,0,0,0,0,0,0,0,0,0,0,0,0,0,0,0,0,0,0,0,0,0,0,0,0,0,0,0,0,0,0,0,0,0,0,0,0,0,0,0],"trees":[{"base_weights":[-5.2362257E-8,1.920929E0,-5.8554995E-1,1.9480026E0,-9.294921E-4,-1.2967159E0,1.7392493E0,1.981341E-1,6.076209E-2,1.1103884E-1,-1.1118343E-1,-1.6533653E-1,1.7100665E-1,3.3209413E-2,1.9734474E-1],"categories":[],"categories_nodes":[],"categories_segments":[],"categories_sizes":[],"default_left":[0,0,0,0,0,0,0,0,0,0,0,0,0,0,0],"id":0,"left_children":[1,3,5,7,9,11,13,-1,-1,-1,-1,-1,-1,-1,-1],"loss_changes":[8.666579E2,9.367554E0,9.785391E2,6.727844E0,5.5555563E0,4.8834167E2,4.507007E1,0E0,0E0,0E0,0E0,0E0,0E0,0E0,0E0],"parents":[2147483647,0,0,1,1,2,2,3,3,4,4,5,5,6,6],"right_children":[2,4,6,8,10,12,14,-1,-1,-1,-1,-1,-1,-1,-1],"split_conditions":[3.4950393E-1,7.754385E-1,5.7777363E-1,5.4641944E-1,2.2644205E-1,7.6971895E-1,5.2198845E-1,1.981341E-1,6.076209E-2,1.1103884E-1,-1.1118343E-1,-1.6533653E-1,1.7100665E-1,3.3209413E-2,1.9734474E-1],"split_indices":[22,15,22,2,1,21,24,0,0,0,0,0,0,0,0],"split_type":[0,0,0,0,0,0,0,0,0,0,0,0,0,0,0],"sum_hessian":[7.684997E2,1.7899992E2,5.8949976E2,1.7649992E2,2.499999E0,4.5174982E2,1.3774994E2,1.7174992E2,4.749998E0,1.2499995E0,1.2499995E0,4.0424982E2,4.749998E1,1.9999992E1,1.17749954E2],"tree_param":{"num_deleted":"0","num_feature":"34","num_nodes":"15","size_leaf_vector":"1"}},{"base_weights":[7.290632E-4,1.7474915E0,-5.3047097E-1,1.7722831E0,-8.770964E-4,-1.1752522E0,1.5807533E0,1.802712E-1,5.5788588E-2,1.050603E-1,-1.0518873E-1,-1.4988147E-1,1.5542442E-1,3.4015965E-2,1.8042001E-1],"categories":[],"categories_nodes":[],"categories_segments":[],"categories_sizes":[],"default_left":[0,0,0,0,0,0,0,0,0,0,0,0,0,0,0],"id":1,"left_children":[1,3,5,7,9,11,13,-1,-1,-1,-1,-1,-1,-1,-1],"loss_changes":[7.0943146E2,7.729553E0,7.9995044E2,5.4905396E0,4.964513E0,3.994806E2,3.752713E1,0E0,0E0,0E0,0E0,0E0,0E0,0E0,0E0],"parents":[2147483647,0,0,1,1,2,2,3,3,4,4,5,5,6,6],"right_children":[2,4,6,8,10,12,14,-1,-1,-1,-1,-1,-1,-1,-1],"split_conditions":[3.4950393E-1,7.754385E-1,5.7777363E-1,5.4641944E-1,2.2644205E-1,7.6971895E-1,5.2695787E-1,1.802712E-1,5.5788588E-2,1.050603E-1,-1.0518873E-1,-1.4988147E-1,1.5542442E-1,3.4015965E-2,1.8042001E-1],"split_indices":[22,15,22,2,1,21,24,0,0,0,0,0,0,0,0],"split_type":[0,0,0,0,0,0,0,0,0,0,0,0,0,0,0],"sum_hessian":[7.625732E2,1.7729117E2,5.85282E2,1.7479886E2,2.4922988E0,4.48692E2,1.3659003E2,1.7005344E2,4.745429E0,1.2460644E0,1.2462344E0,4.0154282E2,4.714917E1,2.1231796E1,1.1535824E2],"tree_param":{"num_deleted":"0","num_feature":"34","num_nodes":"15","size_leaf_vector":"1"}},{"base_weights":[1.5180169E-3,1.6157564E0,-4.8644024E-1,1.6390616E0,-8.2924427E-4,-1.0549915E0,1.5404215E0,1.6679613E-1,5.1292002E-2,9.973019E-2,-9.9845104E-2,-1.3734859E-1,1.4644516E-1,4.1944105E-2,1.6705297E-1],"categories":[],"categories_nodes":[],"categories_segments":[],"categories_sizes":[],"default_left":[0,0,0,0,0,0,0,0,0,0,0,0,0,0,0],"id":2,"left_children":[1,3,5,7,9,11,13,-1,-1,-1,-1,-1,-1,-1,-1],"loss_changes":[5.9015405E2,6.5533752E0,6.6461206E2,4.723938E0,4.452033E0,3.630125E2,1.773996E1,0E0,0E0,0E0,0E0,0E0,0E0,0E0,0E0],"parents":[2147483647,0,0,1,1,2,2,3,3,4,4,5,5,6,6],"right_children":[2,4,6,8,10,12,14,-1,-1,-1,-1,-1,-1,-1,-1],"split_conditions":[3.4950393E-1,7.754385E-1,5.869117E-1,5.4641944E-1,2.2644205E-1,7.805339E-1,5.2198845E-1,1.6679613E-1,5.1292002E-2,9.973019E-2,-9.9845104E-2,-1.3734859E-1,1.4644516E-1,4.1944105E-2,1.6705297E-1],"split_indices":[22,15,22,2,1,21,24,0,0,0,0,0,0,0,0],"split_type":[0,0,0,0,0,0,0,0,0,0,0,0,0,0,0],"sum_hessian":[7.47232E2,1.7290971E2,5.7432227E2,1.704387E2,2.4710019E0,4.4888565E2,1.254366E2,1.6570517E2,4.733545E0,1.2353458E0,1.2356559E0,3.9891217E2,4.9973484E1,1.3484163E1,1.1195243E2],"tree_param":{"num_deleted":"0","num_feature":"34","num_nodes":"15","size_leaf_vector":"1"}},{"base_weights":[2.3628839E-3,1.5122994E0,-4.5004636E-1,1.5346322E0,-7.8527187E-4,-9.755472E-1,1.4382129E0,1.5629068E-1,4.720762E-2,9.494322E-2,-9.504678E-2,-1.2701355E-1,1.3592607E-1,4.4758677E-2,1.5777735E-1],"categories":[],"categories_nodes":[],"categories_segments":[],"categories_sizes":[],"default_left":[0,0,0,0,0,0,0,0,0,0,0,0,0,0,0],"id":3,"left_children":[1,3,5,7,9,11,13,-1,-1,-1,-1,-1,-1,-1,-1],"loss_changes":[4.9687894E2,5.667816E0,5.567723E2,4.2269897E0,4.005418E0,3.0328488E2,1.619574E1,0E0,0E0,0E0,0E0,0E0,0E0,0E0,0E0],"parents":[2147483647,0,0,1,1,2,2,3,3,4,4,5,5,6,6],"right_children":[2,4,6,8,10,12,14,-1,-1,-1,-1,-1,-1,-1,-1],"split_conditions":[3.4950393E-1,7.754385E-1,5.869117E-1,5.4641944E-1,2.2644205E-1,7.805339E-1,6.1351216E-1,1.5629068E-1,4.720762E-2,9.494322E-2,-9.504678E-2,-1.2701355E-1,1.3592607E-1,4.4758677E-2,1.5777735E-1],"split_indices":[22,15,22,2,1,21,22,0,0,0,0,0,0,0,0],"split_type":[0,0,0,0,0,0,0,0,0,0,0,0,0,0,0],"sum_hessian":[7.2538214E2,1.666932E2,5.5868896E2,1.642546E2,2.4386046E0,4.3743466E2,1.2125431E2,1.595384E2,4.7161875E0,1.2190907E0,1.2195138E0,3.8883093E2,4.860373E1,1.5492546E1,1.05761765E2],"tree_param":{"num_deleted":"0","num_feature":"34","num_nodes":"15","size_leaf_vector":"1"}},{"base_weights":[3.2151355E-3,1.4289001E0,-4.191192E-1,1.4506147E0,-7.4494455E-4,-9.0795076E-1,1.3531793E0,1.4789101E-1,4.348353E-2,9.061465E-2,-9.0708606E-2,-1.16340935E-1,1.4467655E-1,3.0856375E-2,1.4845012E-1],"categories":[],"categories_nodes":[],"categories_segments":[],"categories_sizes":[],"default_left":[0,0,0,0,0,0,0,0,0,0,0,0,0,0,0],"id":4,"left_children":[1,3,5,7,9,11,13,-1,-1,-1,-1,-1,-1,-1,-1],"loss_changes":[4.2225204E2,4.97641E0,4.6994452E2,3.8943176E0,3.614388E0,2.5712766E2,1.5642044E1,0E0,0E0,0E0,0E0,0E0,0E0,0E0,0E0],"parents":[2147483647,0,0,1,1,2,2,3,3,4,4,5,5,6,6],"right_children":[2,4,6,8,10,12,14,-1,-1,-1,-1,-1,-1,-1,-1],"split_conditions":[3.4950393E-1,7.754385E-1,5.869117E-1,5.4641944E-1,2.2644205E-1,8.258777E-1,5.2198845E-1,1.4789101E-1,4.348353E-2,9.061465E-2,-9.0708606E-2,-1.16340935E-1,1.4467655E-1,3.0856375E-2,1.4845012E-1],"split_indices":[22,15,22,2,1,21,24,0,0,0,0,0,0,0,0],"split_type":[0,0,0,0,0,0,0,0,0,0,0,0,0,0,0],"sum_hessian":[6.992859E2,1.592656E2,5.400203E2,1.5686829E2,2.3973176E0,4.236561E2,1.16364204E2,1.5217343E2,4.6948466E0,1.1984024E0,1.1989152E0,3.8264917E2,4.100694E1,1.3368954E1,1.02995255E2],"tree_param":{"num_deleted":"0","num_feature":"34","num_nodes":"15","size_leaf_vector":"1"}},{"base_weights":[4.1758255E-3,1.3602238E0,-3.919165E-1,1.3815776E0,-7.074459E-4,-8.480808E-1,1.2829064E0,1.4103924E-1,4.007746E-2,8.6675934E-2,-8.676167E-2,-1.1082726E-1,1.1956286E-1,3.4266964E-2,1.4258204E-1],"categories":[],"categories_nodes":[],"categories_segments":[],"categories_sizes":[],"default_left":[0,0,0,0,0,0,0,0,0,0,0,0,0,0,0],"id":5,"left_children":[1,3,5,7,9,11,13,-1,-1,-1,-1,-1,-1,-1,-1],"loss_changes":[3.6137518E2,4.42099E0,3.9891113E2,3.6667786E0,3.2705643E0,2.1926605E2,1.4542847E1,0E0,0E0,0E0,0E0,0E0,0E0,0E0,0E0],"parents":[2147483647,0,0,1,1,2,2,3,3,4,4,5,5,6,6],"right_children":[2,4,6,8,10,12,14,-1,-1,-1,-1,-1,-1,-1,-1],"split_conditions":[3.4950393E-1,7.754385E-1,5.869117E-1,5.4641944E-1,2.2644205E-1,7.6971895E-1,6.1351216E-1,1.4103924E-1,4.007746E-2,8.6675934E-2,-8.676167E-2,-1.1082726E-1,1.1956286E-1,3.4266964E-2,1.4258204E-1],"split_indices":[22,15,22,2,1,21,22,0,0,0,0,0,0,0,0],"split_type":[0,0,0,0,0,0,0,0,0,0,0,0,0,0,0],"sum_hessian":[6.7080884E2,1.5109413E2,5.197147E2,1.4874507E2,2.3490684E0,4.0885126E2,1.1086343E2,1.4407434E2,4.6707206E0,1.1742431E0,1.1748253E0,3.6308356E2,4.5767715E1,1.5075944E1,9.578748E1],"tree_param":{"num_deleted":"0","num_feature":"34","num_nodes":"15","size_leaf_vector":"1"}},{"base_weights":[5.0239656E-3,1.3210732E0,-3.6795935E-1,1.3569686E0,1.6891958E-2,-8.216141E-1,1.2327293E0,1.3749683E-1,1.1579207E-2,8.223791E-2,-1.2923981E-1,-1.069594E-1,1.3347195E-1,2.9342929E-2,1.3917474E-1],"categories":[],"categories_nodes":[],"categories_segments":[],"categories_sizes":[],"default_left":[0,0,0,0,0,0,0,0,0,0,0,0,0,0,0],"id":6,"left_children":[1,3,5,7,9,11,13,-1,-1,-1,-1,-1,-1,-1,-1],"loss_changes":[3.15429E2,6.620102E0,3.646059E2,2.9257812E0,6.1393595E0,2.1036548E2,1.6166687E1,0E0,0E0,0E0,0E0,0E0,0E0,0E0,0E0],"parents":[2147483647,0,0,1,1,2,2,3,3,4,4,5,5,6,6],"right_children":[2,4,6,8,10,12,14,-1,-1,-1,-1,-1,-1,-1,-1],"split_conditions":[2.902663E-1,5.0650495E-1,5.4079854E-1,7.754385E-1,1.8160461E-1,8.258777E-1,5.4586875E-1,1.3749683E-1,1.1579207E-2,8.223791E-2,-1.2923981E-1,-1.069594E-1,1.3347195E-1,2.9342929E-2,1.3917474E-1],"split_indices":[24,4,24,15,9,21,10,0,0,0,0,0,0,0,0],"split_type":[0,0,0,0,0,0,0,0,0,0,0,0,0,0,0],"sum_hessian":[6.4060876E2,1.4090215E2,4.9970663E2,1.3708853E2,3.8136165E0,3.897371E2,1.0996955E2,1.3502263E2,2.0659013E0,2.591309E0,1.2223074E0,3.4999176E2,3.974533E1,1.6333702E1,9.363585E1],"tree_param":{"num_deleted":"0","num_feature":"34","num_nodes":"15","size_leaf_vector":"1"}},{"base_weights":[5.803164E-3,1.2561841E0,-3.4869283E-1,1.2783428E0,-1.7358635E-2,-7.5055975E-1,1.170379E0,1.3095014E-1,3.343277E-2,8.2600944E-2,-8.4666446E-2,-9.8961525E-2,1.2001777E-1,1.9208422E-2,1.3142967E-1],"categories":[],"categories_nodes":[],"categories_segments":[],"categories_sizes":[],"default_left":[0,0,0,0,0,0,0,0,0,0,0,0,0,0,0],"id":7,"left_children":[1,3,5,7,9,11,13,-1,-1,-1,-1,-1,-1,-1,-1],"loss_changes":[2.7176334E2,3.8439178E0,2.9249347E2,3.4779205E0,3.0092454E0,1.776337E2,1.3872818E1,0E0,0E0,0E0,0E0,0E0,0E0,0E0,0E0],"parents":[2147483647,0,0,1,1,2,2,3,3,4,4,5,5,6,6],"right_children":[2,4,6,8,10,12,14,-1,-1,-1,-1,-1,-1,-1,-1],"split_conditions":[3.4950393E-1,7.754385E-1,5.869117E-1,5.4641944E-1,2.2644205E-1,7.838335E-1,5.2198845E-1,1.3095014E-1,3.343277E-2,8.2600944E-2,-8.4666446E-2,-9.8961525E-2,1.2001777E-1,1.9208422E-2,1.3142967E-1],"split_indices":[22,15,22,2,1,19,24,0,0,0,0,0,0,0,0],"split_type":[0,0,0,0,0,0,0,0,0,0,0,0,0,0,0],"sum_hessian":[6.1112E2,1.3442645E2,4.7669354E2,1.3212383E2,2.30263E0,3.773677E2,9.932583E1,1.2752743E2,4.596396E0,1.1436065E0,1.1590233E0,3.366101E2,4.0757607E1,1.3037411E1,8.6288414E1],"tree_param":{"num_deleted":"0","num_feature":"34","num_nodes":"15","size_leaf_vector":"1"}},{"base_weights":[6.6229813E-3,1.2385277E0,-3.2495427E-1,1.2779739E0,-4.55536E-2,-7.2420293E-1,1.1448679E0,1.2970488E-1,1.044996E-2,7.420689E-2,-1.2311856E-1,-9.56229E-2,1.2509082E-1,2.5944212E-2,1.3071208E-1],"categories":[],"categories_nodes":[],"categories_segments":[],"categories_sizes":[],"default_left":[0,0,0,0,0,0,0,0,0,0,0,0,0,0,0],"id":8,"left_children":[1,3,5,7,9,11,13,-1,-1,-1,-1,-1,-1,-1,-1],"loss_changes":[2.3890915E2,6.341095E0,2.7127377E2,2.5589447E0,5.267552E0,1.6756458E2,1.3859268E1,0E0,0E0,0E0,0E0,0E0,0E0,0E0,0E0],"parents":[2147483647,0,0,1,1,2,2,3,3,4,4,5,5,6,6],"right_children":[2,4,6,8,10,12,14,-1,-1,-1,-1,-1,-1,-1,-1],"split_conditions":[2.8482538E-1,5.0650495E-1,5.4079854E-1,7.754385E-1,1.8160461E-1,8.258777E-1,5.4586875E-1,1.2970488E-1,1.044996E-2,7.420689E-2,-1.2311856E-1,-9.56229E-2,1.2509082E-1,2.5944212E-2,1.3071208E-1],"split_indices":[24,4,24,15,9,21,10,0,0,0,0,0,0,0,0],"split_type":[0,0,0,0,0,0,0,0,0,0,0,0,0,0,0],"sum_hessian":[5.8290045E2,1.2303921E2,4.598612E2,1.1937677E2,3.6624393E0,3.6203006E2,9.783115E1,1.1736372E2,2.013046E0,2.425368E0,1.2370714E0,3.2443317E2,3.759691E1,1.5553511E1,8.227763E1],"tree_param":{"num_deleted":"0","num_feature":"34","num_nodes":"15","size_leaf_vector":"1"}},{"base_weights":[7.4372534E-3,1.0961553E0,-3.3793905E-1,1.3132331E0,7.339934E-1,-6.836947E-1,1.2164841E0,1.3321339E-1,1.0678368E-2,-6.688566E-2,1.05428115E-1,-8.9582324E-2,1.3628212E-1,2.1533832E-2,1.24612726E-1],"categories":[],"categories_nodes":[],"categories_segments":[],"categories_sizes":[],"default_left":[0,0,0,0,0,0,0,0,0,0,0,0,0,0,0],"id":9,"left_children":[1,3,5,7,9,11,13,-1,-1,-1,-1,-1,-1,-1,-1],"loss_changes":[2.0897902E2,9.558685E0,2.2760287E2,1.7370911E0,2.4261715E1,1.5134244E2,2.0208282E0,0E0,0E0,0E0,0E0,0E0,0E0,0E0,0E0],"parents":[2147483647,0,0,1,1,2,2,3,3,4,4,5,5,6,6],"right_children":[2,4,6,8,10,12,14,-1,-1,-1,-1,-1,-1,-1,-1],"split_conditions":[3.7369466E-1,2.7249953E-1,6.0215557E-1,9.5486283E-1,6.776535E-2,8.366528E-1,6.1351216E-1,1.3321339E-1,1.0678368E-2,-6.688566E-2,1.05428115E-1,-8.9582324E-2,1.3628212E-1,2.1533832E-2,1.24612726E-1],"split_indices":[22,4,22,29,9,19,22,0,0,0,0,0,0,0,0],"split_type":[0,0,0,0,0,0,0,0,0,0,0,0,0,0,0],"sum_hessian":[5.5378436E2,1.3284567E2,4.209387E2,8.141804E1,5.142764E1,3.4480313E2,7.6135574E1,8.0059616E1,1.3584223E0,9.356808E0,4.207083E1,3.1292917E2,3.187394E1,2.4271536E0,7.370842E1],"tree_param":{"num_deleted":"0","num_feature":"34","num_nodes":"15","size_leaf_vector":"1"}},{"base_weights":[8.443644E-3,1.0564806E0,-3.181848E-1,1.278386E0,6.954652E-1,-6.414513E-1,1.1835641E0,1.2982716E-1,1.0072842E-2,-6.1780255E-2,1.0069016E-1,-8.994534E-2,8.8435225E-2,2.0120539E-2,1.21478796E-1],"categories":[],"categories_nodes":[],"categories_segments":[],"categories_sizes":[],"default_left":[0,0,0,0,0,0,0,0,0,0,0,0,0,0,0],"id":10,"left_children":[1,3,5,7,9,11,13,-1,-1,-1,-1,-1,-1,-1,-1],"loss_changes":[1.8100075E2,9.175476E0,1.9646732E2,1.6633987E0,2.1079582E1,1.3163876E2,1.9566574E0,0E0,0E0,0E0,0E0,0E0,0E0,0E0,0E0],"parents":[2147483647,0,0,1,1,2,2,3,3,4,4,5,5,6,6],"right_children":[2,4,6,8,10,12,14,-1,-1,-1,-1,-1,-1,-1,-1],"split_conditions":[3.7369466E-1,2.7249953E-1,6.0215557E-1,9.5486283E-1,6.776535E-2,6.9794726E-1,6.1351216E-1,1.2982716E-1,1.0072842E-2,-6.1780255E-2,1.0069016E-1,-8.994534E-2,8.8435225E-2,2.0120539E-2,1.21478796E-1],"split_indices":[22,4,22,29,9,21,22,0,0,0,0,0,0,0,0],"split_type":[0,0,0,0,0,0,0,0,0,0,0,0,0,0,0],"sum_hessian":[5.267673E2,1.24632E2,4.0213525E2,7.561355E1,4.901845E1,3.313761E2,7.075917E1,7.425725E1,1.3563057E0,9.207685E0,3.981077E1,2.837984E2,4.7577698E1,2.409084E0,6.835008E1],"tree_param":{"num_deleted":"0","num_feature":"34","num_nodes":"15","size_leaf_vector":"1"}},{"base_weights":[9.153291E-3,9.3797743E-1,-3.34983E-1,5.2734E-2,1.2702258E0,-6.4243144E-1,1.0695714E0,1.00119375E-1,-1.1759001E-1,1.17316894E-1,2.957378E-1,1.12434424E-1,-9.939589E-2,1.146751E-1,-1.1777868E-1],"categories":[],"categories_nodes":[],"categories_segments":[],"categories_sizes":[],"default_left":[0,0,0,0,0,0,0,0,0,0,0,0,0,0,0],"id":11,"left_children":[1,3,5,7,9,11,13,-1,-1,-1,-1,-1,-1,-1,-1],"loss_changes":[1.6030186E2,3.980861E1,1.5871266E2,4.5507256E1,1.2665466E1,1.8796794E2,1.2814522E1,0E0,0E0,0E0,0E0,0E0,0E0,0E0,0E0],"parents":[2147483647,0,0,1,1,2,2,3,3,4,4,5,5,6,6],"right_children":[2,4,6,8,10,12,14,-1,-1,-1,-1,-1,-1,-1,-1],"split_conditions":[2.8605443E-1,3.7136814E-1,7.805339E-1,6.0810022E-2,4.4399184E-1,5.4443944E-1,7.23388E-1,1.00119375E-1,-1.1759001E-1,1.17316894E-1,2.957378E-1,1.12434424E-1,-9.939589E-2,1.146751E-1,-1.1777868E-1],"split_indices":[4,15,21,14,3,25,15,0,0,0,0,0,0,0,0],"split_type":[0,0,0,0,0,0,0,0,0,0,0,0,0,0,0],"sum_hessian":[4.9952118E2,1.3457568E2,3.649455E2,3.704134E1,9.753435E1,2.9985226E2,6.509324E1,2.10086E1,1.603274E1,9.383184E1,3.7025104E0,4.9394955E1,2.504573E2,6.340548E1,1.6877611E0],"tree_param":{"num_deleted":"0","num_feature":"34","num_nodes":"15","size_leaf_vector":"1"}},{"base_weights":[9.476256E-3,1.099074E0,-2.6149064E-1,1.1518294E0,-2.98704E-1,-5.923311E-1,1.0477738E0,1.17766954E-1,-4.5598093E-3,5.676357E-2,-1.3595293E-1,-9.319406E-2,5.0732356E-2,1.8167846E-2,1.2097146E-1],"categories":[],"categories_nodes":[],"categories_segments":[],"categories_sizes":[],"default_left":[0,0,0,0,0,0,0,0,0,0,0,0,0,0,0],"id":12,"left_children":[1,3,5,7,9,11,13,-1,-1,-1,-1,-1,-1,-1,-1],"loss_changes":[1.405363E2,7.3344345E0,1.6575267E2,2.8865662E0,4.67009E0,1.1436338E2,1.06167145E1,0E0,0E0,0E0,0E0,0E0,0E0,0E0,0E0],"parents":[2147483647,0,0,1,1,2,2,3,3,4,4,5,5,6,6],"right_children":[2,4,6,8,10,12,14,-1,-1,-1,-1,-1,-1,-1,-1],"split_conditions":[2.8482538E-1,5.0650495E-1,5.4079854E-1,7.754385E-1,1.8160461E-1,6.245274E-1,5.2684224E-1,1.17766954E-1,-4.5598093E-3,5.676357E-2,-1.3595293E-1,-9.319406E-2,5.0732356E-2,1.8167846E-2,1.2097146E-1],"split_indices":[24,4,24,15,9,19,10,0,0,0,0,0,0,0,0],"split_type":[0,0,0,0,0,0,0,0,0,0,0,0,0,0,0],"sum_hessian":[4.7402567E2,9.37972E1,3.8022845E2,9.055539E1,3.2418115E0,3.0396625E2,7.6262215E1,8.865866E1,1.8967291E0,2.0403988E0,1.2014128E0,2.3235876E2,7.160748E1,1.2347405E1,6.3914806E1],"tree_param":{"num_deleted":"0","num_feature":"34","num_nodes":"15","size_leaf_vector":"1"}},{"base_weights":[9.564967E-3,8.8231504E-1,-3.0584207E-1,1.681333E-2,1.20643E0,-5.985565E-1,1.0225625E0,9.3349926E-2,-1.1177907E-1,1.1064539E-1,2.6771525E-1,1.05062924E-1,-9.327503E-2,1.1023023E-1,-1.1275189E-1],"categories":[],"categories_nodes":[],"categories_segments":[],"categories_sizes":[],"default_left":[0,0,0,0,0,0,0,0,0,0,0,0,0,0,0],"id":13,"left_children":[1,3,5,7,9,11,13,-1,-1,-1,-1,-1,-1,-1,-1],"loss_changes":[1.2502727E2,3.380159E1,1.3034888E2,3.6263725E1,9.93367E0,1.5201343E2,1.1634918E1,0E0,0E0,0E0,0E0,0E0,0E0,0E0,0E0],"parents":[2147483647,0,0,1,1,2,2,3,3,4,4,5,5,6,6],"right_children":[2,4,6,8,10,12,14,-1,-1,-1,-1,-1,-1,-1,-1],"split_conditions":[2.8340104E-1,3.7136814E-1,7.805339E-1,6.0810022E-2,4.4399184E-1,5.7801676E-1,7.23388E-1,9.3349926E-2,-1.1177907E-1,1.1064539E-1,2.6771525E-1,1.05062924E-1,-9.327503E-2,1.1023023E-1,-1.1275189E-1],"split_indices":[4,15,21,14,3,23,15,0,0,0,0,0,0,0,0],"split_type":[0,0,0,0,0,0,0,0,0,0,0,0,0,0,0],"sum_hessian":[4.5221585E2,1.1956765E2,3.326482E2,3.286318E1,8.670447E1,2.730344E2,5.9613808E1,1.8275232E1,1.4587947E1,8.2826454E1,3.8780155E0,4.56443E1,2.2739009E2,5.7951874E1,1.6619331E0],"tree_param":{"num_deleted":"0","num_feature":"34","num_nodes":"15","size_leaf_vector":"1"}},{"base_weights":[9.82986E-3,8.4991467E-1,-2.9454577E-1,1.0180117E0,-3.103553E-1,-6.7712057E-1,8.7159824E-1,7.186238E-2,1.5352891E-1,8.9259736E-2,-7.054778E-2,-9.7975485E-2,1.5167153E-1,1.391307E-1,3.644126E-2],"categories":[],"categories_nodes":[],"categories_segments":[],"categories_sizes":[],"default_left":[0,0,0,0,0,0,0,0,0,0,0,0,0,0,0],"id":14,"left_children":[1,3,5,7,9,11,13,-1,-1,-1,-1,-1,-1,-1,-1],"loss_changes":[1.1026377E2,2.2683403E1,1.4181909E2,1.4445892E1,7.891917E0,1.6011444E2,2.0220505E1,0E0,0E0,0E0,0E0,0E0,0E0,0E0,0E0],"parents":[2147483647,0,0,1,1,2,2,3,3,4,4,5,5,6,6],"right_children":[2,4,6,8,10,12,14,-1,-1,-1,-1,-1,-1,-1,-1],"split_conditions":[1.720447E-1,8.7229043E-1,6.840222E-1,6.373509E-1,3.2138577E-1,4.8602468E-1,2.0141362E-1,7.186238E-2,1.5352891E-1,8.9259736E-2,-7.054778E-2,-9.7975485E-2,1.5167153E-1,1.391307E-1,3.644126E-2],"split_indices":[16,27,21,15,6,26,7,0,0,0,0,0,0,0,0],"split_type":[0,0,0,0,0,0,0,0,0,0,0,0,0,0,0],"sum_hessian":[4.292419E2,1.13682594E2,3.155593E2,9.9403824E1,1.427877E1,2.3792351E2,7.7635796E1,6.447593E1,3.4927895E1,3.219116E0,1.1059654E1,2.0956758E2,2.8355923E1,3.7483543E1,4.0152256E1],"tree_param":{"num_deleted":"0","num_feature":"34","num_nodes":"15","size_leaf_vector":"1"}},{"base_weights":[1.0443878E-2,-3.2840237E-1,7.6119417E-1,1.1802351E0,-7.1667725E-1,1.7441814E0,4.5808256E-1,1.0490916E-1,2.3954666E-1,-1.00060605E-1,6.341236E-2,1.11162975E-1,2.5563404E-1,-4.652243E-2,1.0508561E-1],"categories":[],"categories_nodes":[],"categories_segments":[],"categories_sizes":[],"default_left":[0,0,0,0,0,0,0,0,0,0,0,0,0,0,0],"id":15,"left_children":[1,3,5,7,9,11,13,-1,-1,-1,-1,-1,-1,-1,-1],"loss_changes":[1.0429413E2,1.6632709E2,3.7188004E1,6.762741E0,8.704451E1,1.2411835E1,5.4563744E1,0E0,0E0,0E0,0E0,0E0,0E0,0E0,0E0],"parents":[2147483647,0,0,1,1,2,2,3,3,4,4,5,5,6,6],"right_children":[2,4,6,8,10,12,14,-1,-1,-1,-1,-1,-1,-1,-1],"split_conditions":[6.245274E-1,5.73591E-1,1.0130057E-1,9.6269554E-1,6.840222E-1,3.431585E-1,7.838335E-1,1.0490916E-1,2.3954666E-1,-1.00060605E-1,6.341236E-2,1.11162975E-1,2.5563404E-1,-4.652243E-2,1.0508561E-1],"split_indices":[19,23,1,31,21,26,19,0,0,0,0,0,0,0,0],"split_type":[0,0,0,0,0,0,0,0,0,0,0,0,0,0,0],"sum_hessian":[4.0799637E2,2.8150397E2,1.2649242E2,5.7202938E1,2.2430103E2,2.869161E1,9.7800804E1,5.331288E1,3.8900561E0,1.8555742E2,3.874361E1,1.7460892E1,1.123072E1,3.832335E1,5.947745E1],"tree_param":{"num_deleted":"0","num_feature":"34","num_nodes":"15","size_leaf_vector":"1"}},{"base_weights":[1.1347175E-2,8.2668483E-1,-2.890348E-1,2.7804342E-1,1.2825644E0,-5.3639793E-1,1.0139183E0,9.690401E-2,-8.616269E-2,1.3813013E-1,-2.5914049E-2,-7.61521E-2,1.5212789E-1,1.07843496E-1,-8.1619374E-2],"categories":[],"categories_nodes":[],"categories_segments":[],"categories_sizes":[],"default_left":[0,0,0,0,0,0,0,0,0,0,0,0,0,0,0],"id":16,"left_children":[1,3,5,7,9,11,13,-1,-1,-1,-1,-1,-1,-1,-1],"loss_changes":[9.556725E1,2.5918243E1,9.245888E1,3.938507E1,9.049797E0,1.1248837E2,6.293705E0,0E0,0E0,0E0,0E0,0E0,0E0,0E0,0E0],"parents":[2147483647,0,0,1,1,2,2,3,3,4,4,5,5,6,6],"right_children":[2,4,6,8,10,12,14,-1,-1,-1,-1,-1,-1,-1,-1],"split_conditions":[2.8340104E-1,4.835758E-1,8.197207E-1,6.851765E-2,9.555222E-1,4.8602468E-1,7.23388E-1,9.690401E-2,-8.616269E-2,1.3813013E-1,-2.5914049E-2,-7.61521E-2,1.5212789E-1,1.07843496E-1,-8.1619374E-2],"split_indices":[4,15,21,7,27,26,15,0,0,0,0,0,0,0,0],"split_type":[0,0,0,0,0,0,0,0,0,0,0,0,0,0,0],"sum_hessian":[3.8823376E2,1.0405134E2,2.841824E2,4.795201E1,5.6099327E1,2.393337E2,4.484872E1,2.9945433E1,1.800658E1,5.2820534E1,3.2787938E0,2.162991E2,2.3034595E1,4.371825E1,1.130467E0],"tree_param":{"num_deleted":"0","num_feature":"34","num_nodes":"15","size_leaf_vector":"1"}},{"base_weights":[1.1929252E-2,7.9777426E-1,-2.7738547E-1,4.993908E-1,1.435468E0,-8.6617404E-1,3.408652E-1,1.06058E-1,-3.4731064E-2,1.507697E-1,-3.22269E-2,-1.063899E-1,1.2104394E-1,1.4951019E-1,-3.625772E-2],"categories":[],"categories_nodes":[],"categories_segments":[],"categories_sizes":[],"default_left":[0,0,0,0,0,0,0,0,0,0,0,0,0,0,0],"id":17,"left_children":[1,3,5,7,9,11,13,-1,-1,-1,-1,-1,-1,-1,-1],"loss_changes":[8.4615585E1,1.8338196E1,9.932817E1,3.351332E1,4.4709244E0,5.8619553E1,1.08874695E2,0E0,0E0,0E0,0E0,0E0,0E0,0E0,0E0],"parents":[2147483647,0,0,1,1,2,2,3,3,4,4,5,5,6,6],"right_children":[2,4,6,8,10,12,14,-1,-1,-1,-1,-1,-1,-1,-1],"split_conditions":[1.6470037E-1,6.373509E-1,5.0479776E-1,3.3182E-1,1.3347842E-1,4.5368823E-1,9.87014E-2,1.06058E-1,-3.4731064E-2,1.507697E-1,-3.22269E-2,-1.063899E-1,1.2104394E-1,1.4951019E-1,-3.625772E-2],"split_indices":[16,15,21,12,26,30,3,0,0,0,0,0,0,0,0],"split_type":[0,0,0,0,0,0,0,0,0,0,0,0,0,0,0],"sum_hessian":[3.70198E2,9.914367E1,2.7105432E2,6.8755424E1,3.0388245E1,1.3862979E2,1.3242455E2,4.1197403E1,2.7558022E1,2.9325453E1,1.0627909E0,1.27022964E2,1.160683E1,4.971869E1,8.270585E1],"tree_param":{"num_deleted":"0","num_feature":"34","num_nodes":"15","size_leaf_vector":"1"}},{"base_weights":[1.2193891E-2,-2.5211847E-1,8.3392096E-1,8.687484E-1,-6.2707984E-1,1.0358186E0,-1.1043679E-1,4.930075E-2,1.5111858E-1,-9.449804E-2,6.341861E-2,1.1370658E-1,-1.5426143E-2],"categories":[],"categories_nodes":[],"categories_segments":[],"categories_sizes":[],"default_left":[0,0,0,0,0,0,0,0,0,0,0,0,0],"id":18,"left_children":[1,3,5,7,9,11,-1,-1,-1,-1,-1,-1,-1],"loss_changes":[7.72388E1,1.1364676E2,3.5012318E1,1.56399E1,8.168587E1,9.681915E0,0E0,0E0,0E0,0E0,0E0,0E0,0E0],"parents":[2147483647,0,0,1,1,2,2,3,3,4,4,5,5],"right_children":[2,4,6,8,10,12,-1,-1,-1,-1,-1,-1,-1],"split_conditions":[6.8821704E-1,5.994196E-1,5.5834744E-2,4.804993E-1,6.9794726E-1,9.324876E-1,-1.1043679E-1,4.930075E-2,1.5111858E-1,-9.449804E-2,6.341861E-2,1.1370658E-1,-1.5426143E-2],"split_indices":[19,25,32,26,21,27,0,0,0,0,0,0,0],"split_type":[0,0,0,0,0,0,0,0,0,0,0,0,0],"sum_hessian":[3.536555E2,2.6810986E2,8.554561E1,6.687737E1,2.012325E2,7.7897224E1,7.6483903E0,4.3312614E1,2.3564754E1,1.6092287E2,4.0309643E1,7.18307E1,6.0665193E0],"tree_param":{"num_deleted":"0","num_feature":"34","num_nodes":"13","size_leaf_vector":"1"}},{"base_weights":[1.1718341E-2,7.7043617E-1,-2.592445E-1,2.4614406E-1,1.2220119E0,-4.901507E-1,9.623068E-1,9.194011E-2,-7.8455806E-2,1.3679408E-1,2.3897747E-2,-6.949484E-2,1.4046879E-1,1.03401504E-1,-8.050516E-2],"categories":[],"categories_nodes":[],"categories_segments":[],"categories_sizes":[],"default_left":[0,0,0,0,0,0,0,0,0,0,0,0,0,0,0],"id":19,"left_children":[1,3,5,7,9,11,13,-1,-1,-1,-1,-1,-1,-1,-1],"loss_changes":[6.958466E1,2.0786255E1,7.082829E1,3.0190245E1,6.501335E0,8.264058E1,5.900749E0,0E0,0E0,0E0,0E0,0E0,0E0,0E0,0E0],"parents":[2147483647,0,0,1,1,2,2,3,3,4,4,5,5,6,6],"right_children":[2,4,6,8,10,12,14,-1,-1,-1,-1,-1,-1,-1,-1],"split_conditions":[2.7249953E-1,4.835758E-1,8.197207E-1,6.851765E-2,3.3701462E-1,4.8735315E-1,7.23388E-1,9.194011E-2,-7.8455806E-2,1.3679408E-1,2.3897747E-2,-6.949484E-2,1.4046879E-1,1.03401504E-1,-8.050516E-2],"split_indices":[4,15,21,7,20,28,15,0,0,0,0,0,0,0,0],"split_type":[0,0,0,0,0,0,0,0,0,0,0,0,0,0,0],"sum_hessian":[3.365011E2,8.806596E1,2.4843513E2,4.146686E1,4.6599102E1,2.0944342E2,3.8991714E1,2.5148067E1,1.6318792E1,4.0234806E1,6.364297E0,1.8958586E2,1.985756E1,3.7870125E1,1.1215922E0],"tree_param":{"num_deleted":"0","num_feature":"34","num_nodes":"15","size_leaf_vector":"1"}},{"base_weights":[1.2499133E-2,7.5002575E-1,-2.6254496E-1,8.7790483E-1,-5.644593E-1,-8.314076E-1,2.8869045E-1,5.942904E-2,1.4472729E-1,6.7060724E-2,-9.3260616E-2,-1.0031992E-1,1.14533424E-1,1.3575579E-1,-3.749768E-2],"categories":[],"categories_nodes":[],"categories_segments":[],"categories_sizes":[],"default_left":[0,0,0,0,0,0,0,0,0,0,0,0,0,0,0],"id":20,"left_children":[1,3,5,7,9,11,13,-1,-1,-1,-1,-1,-1,-1,-1],"loss_changes":[6.555504E1,1.5250454E1,7.406189E1,1.2120743E1,4.4406433E0,4.058008E1,8.584933E1,0E0,0E0,0E0,0E0,0E0,0E0,0E0,0E0],"parents":[2147483647,0,0,1,1,2,2,3,3,4,4,5,5,6,6],"right_children":[2,4,6,8,10,12,14,-1,-1,-1,-1,-1,-1,-1,-1],"split_conditions":[1.6470037E-1,9.1838366E-1,5.0479776E-1,6.373509E-1,3.023424E-1,4.5368823E-1,9.87014E-2,5.942904E-2,1.4472729E-1,6.7060724E-2,-9.3260616E-2,-1.0031992E-1,1.14533424E-1,1.3575579E-1,-3.749768E-2],"split_indices":[16,27,21,15,6,30,3,0,0,0,0,0,0,0,0],"split_type":[0,0,0,0,0,0,0,0,0,0,0,0,0,0,0],"sum_hessian":[3.2119562E2,8.677712E1,2.3441849E2,7.93862E1,7.3909187E0,1.1511456E2,1.19303925E2,5.435472E1,2.5031479E1,1.508522E0,5.8823967E0,1.06363396E2,8.751167E0,4.5300224E1,7.40037E1],"tree_param":{"num_deleted":"0","num_feature":"34","num_nodes":"15","size_leaf_vector":"1"}},{"base_weights":[1.23275425E-2,-1.8489075E-1,9.7571206E-1,7.944324E-1,-4.5475397E-1,1.1921742E0,-7.3763657E-1,1.24879204E-1,2.2578603E-2,3.6254253E-2,-7.898468E-2,1.2418419E-1,-3.6944156E-3,-9.647222E-2,-9.724667E-3],"categories":[],"categories_nodes":[],"categories_segments":[],"categories_sizes":[],"default_left":[0,0,0,0,0,0,0,0,0,0,0,0,0,0,0],"id":21,"left_children":[1,3,5,7,9,11,13,-1,-1,-1,-1,-1,-1,-1,-1],"loss_changes":[5.9016205E1,6.8516426E1,2.0454262E1,1.4206291E1,5.583026E1,2.9299011E0,8.5696054E-1,0E0,0E0,0E0,0E0,0E0,0E0,0E0,0E0],"parents":[2147483647,0,0,1,1,2,2,3,3,4,4,5,5,6,6],"right_children":[2,4,6,8,10,12,14,-1,-1,-1,-1,-1,-1,-1,-1],"split_conditions":[7.838335E-1,5.843815E-1,1.7822331E-1,9.7154915E-2,3.2022732E-1,7.152224E-1,2.4618523E-1,1.24879204E-1,2.2578603E-2,3.6254253E-2,-7.898468E-2,1.2418419E-1,-3.6944156E-3,-9.647222E-2,-9.724667E-3],"split_indices":[19,23,26,1,2,15,13,0,0,0,0,0,0,0,0],"split_type":[0,0,0,0,0,0,0,0,0,0,0,0,0,0,0],"sum_hessian":[3.0866693E2,2.5688672E2,5.1780224E1,5.507562E1,2.018111E2,4.624223E1,5.5379953E0,2.9949389E1,2.512623E1,5.8658993E1,1.4315211E2,4.443624E1,1.8059877E0,3.714392E0,1.8236034E0],"tree_param":{"num_deleted":"0","num_feature":"34","num_nodes":"15","size_leaf_vector":"1"}},{"base_weights":[1.2175609E-2,9.5645833E-1,-1.7655124E-1,1.0561522E0,-5.461863E-1,-3.4494156E-1,1.3091259E0,1.1016681E-1,-2.680855E-2,6.213819E-2,-1.2445146E-1,-5.8069225E-2,9.843554E-2,-7.324666E-2,1.488318E-1],"categories":[],"categories_nodes":[],"categories_segments":[],"categories_sizes":[],"default_left":[0,0,0,0,0,0,0,0,0,0,0,0,0,0,0],"id":22,"left_children":[1,3,5,7,9,11,13,-1,-1,-1,-1,-1,-1,-1,-1],"loss_changes":[5.3115482E1,8.013767E0,6.2608654E1,3.1219559E0,3.8291354E0,7.0754745E1,1.0419823E1,0E0,0E0,0E0,0E0,0E0,0E0,0E0,0E0],"parents":[2147483647,0,0,1,1,2,2,3,3,4,4,5,5,6,6],"right_children":[2,4,6,8,10,12,14,-1,-1,-1,-1,-1,-1,-1,-1],"split_conditions":[2.5709432E-1,5.4641944E-1,4.8070267E-1,7.754385E-1,2.0705211E-1,8.258777E-1,4.125411E-1,1.1016681E-1,-2.680855E-2,6.213819E-2,-1.2445146E-1,-5.8069225E-2,9.843554E-2,-7.324666E-2,1.488318E-1],"split_indices":[24,2,26,15,1,21,24,0,0,0,0,0,0,0,0],"split_type":[0,0,0,0,0,0,0,0,0,0,0,0,0,0,0],"sum_hessian":[2.9609988E2,4.8644127E1,2.4745575E2,4.589625E1,2.7478774E0,2.2295348E2,2.4502277E1,4.453364E1,1.3626083E0,1.0696558E0,1.6782216E0,1.8984724E2,3.3106228E1,1.7279203E0,2.2774357E1],"tree_param":{"num_deleted":"0","num_feature":"34","num_nodes":"15","size_leaf_vector":"1"}},{"base_weights":[1.2944613E-2,-2.2703668E-1,7.589195E-1,8.892935E-1,-5.187208E-1,9.39001E-1,-9.9975675E-2,1.3273613E-1,2.3105001E-2,-7.9964295E-2,5.1506568E-2,1.0448841E-1,-1.463636E-2],"categories":[],"categories_nodes":[],"categories_segments":[],"categories_sizes":[],"default_left":[0,0,0,0,0,0,0,0,0,0,0,0,0],"id":23,"left_children":[1,3,5,7,9,11,-1,-1,-1,-1,-1,-1,-1],"loss_changes":[5.087957E1,7.049349E1,2.2846214E1,1.2647266E1,5.0116886E1,7.4232864E0,0E0,0E0,0E0,0E0,0E0,0E0,0E0],"parents":[2147483647,0,0,1,1,2,2,3,3,4,4,5,5],"right_children":[2,4,6,8,10,12,-1,-1,-1,-1,-1,-1,-1],"split_conditions":[6.8821704E-1,5.73667E-1,5.5834744E-2,7.564128E-2,6.840222E-1,9.324876E-1,-9.9975675E-2,1.3273613E-1,2.3105001E-2,-7.9964295E-2,5.1506568E-2,1.0448841E-1,-1.463636E-2],"split_indices":[19,25,32,5,21,27,0,0,0,0,0,0,0],"split_type":[0,0,0,0,0,0,0,0,0,0,0,0,0],"sum_hessian":[2.8224915E2,2.1407617E2,6.817299E1,4.3923573E1,1.701526E2,6.2263523E1,5.9094653E0,2.5762102E1,1.8161469E1,1.3397311E2,3.6179485E1,5.6763264E1,5.5002613E0],"tree_param":{"num_deleted":"0","num_feature":"34","num_nodes":"13","size_leaf_vector":"1"}},{"base_weights":[1.2528114E-2,6.965616E-1,-2.4218388E-1,4.109897E-1,1.3277261E0,-8.020296E-1,2.5275332E-1,9.836694E-2,-3.0610848E-2,5.3045503E-3,1.492471E-1,-9.60098E-2,9.612798E-2,1.2319753E-1,-3.901968E-2],"categories":[],"categories_nodes":[],"categories_segments":[],"categories_sizes":[],"default_left":[0,0,0,0,0,0,0,0,0,0,0,0,0,0,0],"id":24,"left_children":[1,3,5,7,9,11,13,-1,-1,-1,-1,-1,-1,-1,-1],"loss_changes":[4.7326195E1,1.2737633E1,5.5056038E1,2.1732979E1,4.64764E0,2.6880482E1,6.7112236E1,0E0,0E0,0E0,0E0,0E0,0E0,0E0,0E0],"parents":[2147483647,0,0,1,1,2,2,3,3,4,4,5,5,6,6],"right_children":[2,4,6,8,10,12,14,-1,-1,-1,-1,-1,-1,-1,-1],"split_conditions":[1.6470037E-1,6.373509E-1,5.0479776E-1,3.3182E-1,7.38357E-1,5.872799E-1,9.87014E-2,9.836694E-2,-3.0610848E-2,5.3045503E-3,1.492471E-1,-9.60098E-2,9.612798E-2,1.2319753E-1,-3.901968E-2],"split_indices":[16,15,21,12,23,24,3,0,0,0,0,0,0,0,0],"split_type":[0,0,0,0,0,0,0,0,0,0,0,0,0,0,0],"sum_hessian":[2.6965997E2,7.2696785E1,1.9696318E2,5.1187878E1,2.1508911E1,9.213015E1,1.0483303E2,2.8253052E1,2.2934826E1,2.613038E0,1.8895872E1,8.49688E1,7.161346E0,4.1187603E1,6.3645428E1],"tree_param":{"num_deleted":"0","num_feature":"34","num_nodes":"15","size_leaf_vector":"1"}},{"base_weights":[1.2893977E-2,-1.6534147E-1,9.1858774E-1,-3.2813993E-1,1.2590809E0,1.1329962E0,-6.4678854E-1,6.8112016E-2,-6.112289E-2,-3.655616E-2,1.4281534E-1,1.1946987E-1,-9.835041E-3,2.084565E-3,-8.2225226E-2],"categories":[],"categories_nodes":[],"categories_segments":[],"categories_sizes":[],"default_left":[0,0,0,0,0,0,0,0,0,0,0,0,0,0,0],"id":25,"left_children":[1,3,5,7,9,11,13,-1,-1,-1,-1,-1,-1,-1,-1],"loss_changes":[4.202392E1,5.0869186E1,1.5099377E1,5.6432327E1,6.7089615E0,3.0055084E0,6.9579124E-1,0E0,0E0,0E0,0E0,0E0,0E0,0E0,0E0],"parents":[2147483647,0,0,1,1,2,2,3,3,4,4,5,5,6,6],"right_children":[2,4,6,8,10,12,14,-1,-1,-1,-1,-1,-1,-1,-1],"split_conditions":[7.838335E-1,4.8070267E-1,1.7822331E-1,3.7631202E-1,4.125411E-1,7.152224E-1,1.5626964E-1,6.8112016E-2,-6.112289E-2,-3.655616E-2,1.4281534E-1,1.1946987E-1,-9.835041E-3,2.084565E-3,-8.2225226E-2],"split_indices":[19,26,26,22,24,15,1,0,0,0,0,0,0,0,0],"split_type":[0,0,0,0,0,0,0,0,0,0,0,0,0,0,0],"sum_hessian":[2.5838727E2,2.1658249E2,4.1804775E1,1.950587E2,2.1523796E1,3.7011543E1,4.7932305E0,4.2419598E1,1.526391E2,1.9192525E0,1.9604544E1,3.5273746E1,1.7377975E0,1.1809493E0,3.612281E0],"tree_param":{"num_deleted":"0","num_feature":"34","num_nodes":"15","size_leaf_vector":"1"}},{"base_weights":[1.3294783E-2,6.9427496E-1,-2.2607112E-1,1.5833719E-1,1.1324154E0,-4.2792282E-1,8.6055255E-1,8.263182E-2,-7.318523E-2,1.2547074E-1,-2.2776878E-2,-6.1065443E-2,1.1534995E-1,9.5607065E-2,-8.106484E-2],"categories":[],"categories_nodes":[],"categories_segments":[],"categories_sizes":[],"default_left":[0,0,0,0,0,0,0,0,0,0,0,0,0,0,0],"id":26,"left_children":[1,3,5,7,9,11,13,-1,-1,-1,-1,-1,-1,-1,-1],"loss_changes":[4.065415E1,1.505122E1,4.0853947E1,1.8644178E1,6.1948624E0,4.588102E1,5.4439964E0,0E0,0E0,0E0,0E0,0E0,0E0,0E0,0E0],"parents":[2147483647,0,0,1,1,2,2,3,3,4,4,5,5,6,6],"right_children":[2,4,6,8,10,12,14,-1,-1,-1,-1,-1,-1,-1,-1],"split_conditions":[2.8340104E-1,4.835758E-1,8.197207E-1,6.851765E-2,9.555222E-1,4.756873E-1,7.23388E-1,8.263182E-2,-7.318523E-2,1.2547074E-1,-2.2776878E-2,-6.1065443E-2,1.1534995E-1,9.5607065E-2,-8.106484E-2],"split_indices":[4,15,21,7,27,26,15,0,0,0,0,0,0,0,0],"split_type":[0,0,0,0,0,0,0,0,0,0,0,0,0,0,0],"sum_hessian":[2.4744379E2,6.3861515E1,1.8358228E2,2.9337263E1,3.4524254E1,1.5533362E2,2.8248653E1,1.6801495E1,1.2535768E1,3.174744E1,2.7768135E0,1.3979439E2,1.5539229E1,2.7126162E1,1.1224914E0],"tree_param":{"num_deleted":"0","num_feature":"34","num_nodes":"15","size_leaf_vector":"1"}},{"base_weights":[1.3656647E-2,6.6277885E-1,-2.3035517E-1,3.6773193E-1,1.2390851E0,-8.0318195E-1,3.3789062E-1,1.0318027E-1,-1.6028147E-2,1.3967527E-1,-4.7924597E-2,-1.0075418E-1,1.1934775E-1,1.1923945E-1,-2.4352718E-2],"categories":[],"categories_nodes":[],"categories_segments":[],"categories_sizes":[],"default_left":[0,0,0,0,0,0,0,0,0,0,0,0,0,0,0],"id":27,"left_children":[1,3,5,7,9,11,13,-1,-1,-1,-1,-1,-1,-1,-1],"loss_changes":[3.7948128E1,1.067334E1,5.6963936E1,1.5842519E1,6.559284E0,3.6713985E1,4.4078983E1,0E0,0E0,0E0,0E0,0E0,0E0,0E0,0E0],"parents":[2147483647,0,0,1,1,2,2,3,3,4,4,5,5,6,6],"right_children":[2,4,6,8,10,12,14,-1,-1,-1,-1,-1,-1,-1,-1],"split_conditions":[5.666002E-2,6.167085E-1,5.530382E-1,3.154823E-1,1.3347842E-1,5.1747984E-1,9.87014E-2,1.0318027E-1,-1.6028147E-2,1.3967527E-1,-4.7924597E-2,-1.0075418E-1,1.1934775E-1,1.1923945E-1,-2.4352718E-2],"split_indices":[20,15,21,12,26,26,3,0,0,0,0,0,0,0,0],"split_type":[0,0,0,0,0,0,0,0,0,0,0,0,0,0,0],"sum_hessian":[2.3761745E2,6.445024E1,1.7316722E2,4.3710304E1,2.0739933E1,8.603011E1,8.71371E1,1.8938126E1,2.477218E1,1.916827E1,1.5716637E0,7.84918E1,7.5383177E0,3.4857113E1,5.2279987E1],"tree_param":{"num_deleted":"0","num_feature":"34","num_nodes":"15","size_leaf_vector":"1"}},{"base_weights":[1.391861E-2,-1.513338E-1,8.8260156E-1,7.6167095E-1,-3.6713716E-1,1.097687E0,-5.7017505E-1,4.3099362E-2,1.358357E-1,-5.5081338E-2,1.1459891E-1,1.1634928E-1,-8.460575E-3,-8.275824E-2,-1.9037084E-3],"categories":[],"categories_nodes":[],"categories_segments":[],"categories_sizes":[],"default_left":[0,0,0,0,0,0,0,0,0,0,0,0,0,0,0],"id":28,"left_children":[1,3,5,7,9,11,13,-1,-1,-1,-1,-1,-1,-1,-1],"loss_changes":[3.288792E1,3.8218887E1,1.2066872E1,6.7422314E0,4.4103863E1,2.60635E0,7.4747694E-1,0E0,0E0,0E0,0E0,0E0,0E0,0E0,0E0],"parents":[2147483647,0,0,1,1,2,2,3,3,4,4,5,5,6,6],"right_children":[2,4,6,8,10,12,14,-1,-1,-1,-1,-1,-1,-1,-1],"split_conditions":[7.838335E-1,2.0637661E-1,1.7822331E-1,5.866732E-1,4.8070267E-1,7.152224E-1,2.4618523E-1,4.3099362E-2,1.358357E-1,-5.5081338E-2,1.1459891E-1,1.1634928E-1,-8.460575E-3,-8.275824E-2,-1.9037084E-3],"split_indices":[19,14,26,21,26,15,13,0,0,0,0,0,0,0,0],"split_type":[0,0,0,0,0,0,0,0,0,0,0,0,0,0,0],"sum_hessian":[2.2717076E2,1.9155618E2,3.561457E1,3.6137768E1,1.5541843E2,3.1234661E1,4.379912E0,2.436001E1,1.1777756E1,1.3916174E2,1.6256668E1,2.960288E1,1.6317796E0,2.6436257E0,1.7362863E0],"tree_param":{"num_deleted":"0","num_feature":"34","num_nodes":"15","size_leaf_vector":"1"}},{"base_weights":[1.47854015E-2,6.2991714E-1,-2.1776362E-1,3.641493E-1,1.269828E0,-7.8888434E-1,3.1184405E-1,5.956442E-2,-8.501133E-2,1.7411639E-1,9.3906336E-2,-9.831116E-2,1.13429524E-1,1.1171769E-1,-2.3275856E-2],"categories":[],"categories_nodes":[],"categories_segments":[],"categories_sizes":[],"default_left":[0,0,0,0,0,0,0,0,0,0,0,0,0,0,0],"id":29,"left_children":[1,3,5,7,9,11,13,-1,-1,-1,-1,-1,-1,-1,-1],"loss_changes":[3.1591928E1,9.840345E0,4.8734592E1,1.2932285E1,1.0737171E0,3.003217E1,3.705481E1,0E0,0E0,0E0,0E0,0E0,0E0,0E0,0E0],"parents":[2147483647,0,0,1,1,2,2,3,3,4,4,5,5,6,6],"right_children":[2,4,6,8,10,12,14,-1,-1,-1,-1,-1,-1,-1,-1],"split_conditions":[5.666002E-2,3.004916E-1,5.530382E-1,2.591688E-1,4.9728703E-2,5.1747984E-1,9.87014E-2,5.956442E-2,-8.501133E-2,1.7411639E-1,9.3906336E-2,-9.831116E-2,1.13429524E-1,1.1171769E-1,-2.3275856E-2],"split_indices":[20,3,21,3,4,26,3,0,0,0,0,0,0,0,0],"split_type":[0,0,0,0,0,0,0,0,0,0,0,0,0,0,0],"sum_hessian":[2.1888908E2,5.95803E1,1.5930878E2,4.3205322E1,1.6374977E1,7.641474E1,8.2894035E1,3.6715164E1,6.4901567E0,4.9942155E0,1.1380762E1,6.984928E1,6.565465E0,3.3017677E1,4.9876358E1],"tree_param":{"num_deleted":"0","num_feature":"34","num_nodes":"15","size_leaf_vector":"1"}},{"base_weights":[1.4817118E-2,-1.7409268E-1,7.395111E-1,2.3321417E-1,-7.148034E-1,-4.4911954E-1,9.054994E-1,-3.5204172E-2,9.377875E-2,6.999653E-2,-1.0236257E-1,6.9732055E-2,-1.0681596E-1,1.2399524E-1,4.125177E-2],"categories":[],"categories_nodes":[],"categories_segments":[],"categories_sizes":[],"default_left":[0,0,0,0,0,0,0,0,0,0,0,0,0,0,0],"id":30,"left_children":[1,3,5,7,9,11,13,-1,-1,-1,-1,-1,-1,-1,-1],"loss_changes":[2.9111006E1,3.732835E1,9.080904E0,4.032628E1,3.2498344E1,5.042532E0,5.9038143E0,0E0,0E0,0E0,0E0,0E0,0E0,0E0,0E0],"parents":[2147483647,0,0,1,1,2,2,3,3,4,4,5,5,6,6],"right_children":[2,4,6,8,10,12,14,-1,-1,-1,-1,-1,-1,-1,-1],"split_conditions":[6.3923556E-1,9.87014E-2,7.38357E-1,3.66863E-1,3.4950393E-1,2.6899537E-1,3.2687083E-1,-3.5204172E-2,9.377875E-2,6.999653E-2,-1.0236257E-1,6.9732055E-2,-1.0681596E-1,1.2399524E-1,4.125177E-2],"split_indices":[15,3,23,19,22,12,8,0,0,0,0,0,0,0,0],"split_type":[0,0,0,0,0,0,0,0,0,0,0,0,0,0,0],"sum_hessian":[2.1070111E2,1.677362E2,4.2964912E1,9.599427E1,7.174193E1,5.0556984E0,3.7909214E1,5.2710495E1,4.328378E1,1.262734E1,5.911459E1,1.728368E0,3.3273304E0,2.168338E1,1.6225836E1],"tree_param":{"num_deleted":"0","num_feature":"34","num_nodes":"15","size_leaf_vector":"1"}},{"base_weights":[1.4294787E-2,6.166738E-1,-1.9631054E-1,1.2522782E-1,1.0349127E0,-3.9339483E-1,8.2397133E-1,7.7416144E-2,-6.6315435E-2,1.2020999E-1,-6.4055882E-3,-6.915917E-2,4.2253684E-2,9.178614E-2,-7.0254676E-2],"categories":[],"categories_nodes":[],"categories_segments":[],"categories_sizes":[],"default_left":[0,0,0,0,0,0,0,0,0,0,0,0,0,0,0],"id":31,"left_children":[1,3,5,7,9,11,13,-1,-1,-1,-1,-1,-1,-1,-1],"loss_changes":[2.5955385E1,1.076293E1,3.0816826E1,1.3560615E1,5.311901E0,3.1379732E1,4.2098064E0,0E0,0E0,0E0,0E0,0E0,0E0,0E0,0E0],"parents":[2147483647,0,0,1,1,2,2,3,3,4,4,5,5,6,6],"right_children":[2,4,6,8,10,12,14,-1,-1,-1,-1,-1,-1,-1,-1],"split_conditions":[2.7249953E-1,4.835758E-1,8.197207E-1,6.851765E-2,3.3701462E-1,3.483042E-1,7.23388E-1,7.7416144E-2,-6.6315435E-2,1.2020999E-1,-6.4055882E-3,-6.915917E-2,4.2253684E-2,9.178614E-2,-7.0254676E-2],"split_indices":[4,15,21,7,20,28,15,0,0,0,0,0,0,0,0],"split_type":[0,0,0,0,0,0,0,0,0,0,0,0,0,0,0],"sum_hessian":[2.0263757E2,5.1994217E1,1.5064337E2,2.4502407E1,2.7491808E1,1.2677006E2,2.3873304E1,1.3449711E1,1.1052696E1,2.378025E1,3.7115564E0,9.2951614E1,3.3818447E1,2.286565E1,1.0076542E0],"tree_param":{"num_deleted":"0","num_feature":"34","num_nodes":"15","size_leaf_vector":"1"}},{"base_weights":[1.4138188E-2,-1.3522914E-1,8.403001E-1,7.1318704E-1,-3.427524E-1,1.0556246E0,-5.482622E-1,3.942828E-2,1.310022E-1,-5.4383434E-2,7.9885095E-2,1.1293816E-1,-8.28684E-3,2.2080494E-3,-7.1282044E-2],"categories":[],"categories_nodes":[],"categories_segments":[],"categories_sizes":[],"default_left":[0,0,0,0,0,0,0,0,0,0,0,0,0,0,0],"id":32,"left_children":[1,3,5,7,9,11,13,-1,-1,-1,-1,-1,-1,-1,-1],"loss_changes":[2.4406416E1,2.9749416E1,9.632404E0,5.81374E0,3.1497963E1,2.3236446E0,4.5905113E-1,0E0,0E0,0E0,0E0,0E0,0E0,0E0,0E0],"parents":[2147483647,0,0,1,1,2,2,3,3,4,4,5,5,6,6],"right_children":[2,4,6,8,10,12,14,-1,-1,-1,-1,-1,-1,-1,-1],"split_conditions":[7.838335E-1,2.0637661E-1,1.7822331E-1,5.866732E-1,4.6144822E-1,7.152224E-1,8.269348E-1,3.942828E-2,1.310022E-1,-5.4383434E-2,7.9885095E-2,1.1293816E-1,-8.28684E-3,2.2080494E-3,-7.1282044E-2],"split_indices":[19,14,26,21,26,15,19,0,0,0,0,0,0,0,0],"split_type":[0,0,0,0,0,0,0,0,0,0,0,0,0,0,0],"sum_hessian":[1.9585957E2,1.6657896E2,2.9280605E1,3.225881E1,1.3432016E2,2.5557217E1,3.7233894E0,2.2107061E1,1.0151746E1,1.1464944E2,1.9670717E1,2.4009756E1,1.5474606E0,1.0276105E0,2.6957788E0],"tree_param":{"num_deleted":"0","num_feature":"34","num_nodes":"15","size_leaf_vector":"1"}},{"base_weights":[1.4791791E-2,-9.448841E-2,1.1496619E0,-4.5073298E-1,3.6883423E-1,1.244818E-1,3.1077778E-1,5.1234283E-2,-8.313823E-2,1.5443248E-1,2.2450728E-4,-9.056824E-3,5.545931E-2],"categories":[],"categories_nodes":[],"categories_segments":[],"categories_sizes":[],"default_left":[0,0,0,0,0,0,0,0,0,0,0,0,0],"id":33,"left_children":[1,3,5,7,9,-1,11,-1,-1,-1,-1,-1,-1],"loss_changes":[2.3753334E1,2.9023354E1,9.5596313E-1,3.6824036E1,3.298143E1,0E0,3.4834066E-1,0E0,0E0,0E0,0E0,0E0,0E0],"parents":[2147483647,0,0,1,1,2,2,3,3,4,4,6,6],"right_children":[2,4,6,8,10,-1,12,-1,-1,-1,-1,-1,-1],"split_conditions":[4.0076697E-1,5.688792E-1,4.2856988E-1,3.4396887E-2,9.7154915E-2,1.244818E-1,5.564343E-1,5.1234283E-2,-8.313823E-2,1.5443248E-1,2.2450728E-4,-9.056824E-3,5.545931E-2],"split_indices":[1,19,16,18,1,0,0,0,0,0,0,0,0],"split_type":[0,0,0,0,0,0,0,0,0,0,0,0,0],"sum_hessian":[1.8965414E2,1.7383205E2,1.5822093E1,9.828713E1,7.5544914E1,1.3775603E1,2.04649E0,2.774469E1,7.054244E1,1.7195095E1,5.8349815E1,1.0109296E0,1.0355604E0],"tree_param":{"num_deleted":"0","num_feature":"34","num_nodes":"13","size_leaf_vector":"1"}},{"base_weights":[1.5395548E-2,-1.5687945E-1,6.839521E-1,1.9901372E-1,-6.7426854E-1,-4.0879118E-1,8.4513485E-1,-3.2317974E-2,9.031003E-2,-9.459876E-2,9.24189E-2,6.7596704E-2,-1.0082143E-1,1.17703296E-1,3.6095772E-2],"categories":[],"categories_nodes":[],"categories_segments":[],"categories_sizes":[],"default_left":[0,0,0,0,0,0,0,0,0,0,0,0,0,0,0],"id":34,"left_children":[1,3,5,7,9,11,13,-1,-1,-1,-1,-1,-1,-1,-1],"loss_changes":[2.134606E1,2.728217E1,7.032894E0,3.269169E1,2.707002E1,4.2932377E0,4.9446507E0,0E0,0E0,0E0,0E0,0E0,0E0,0E0,0E0],"parents":[2147483647,0,0,1,1,2,2,3,3,4,4,5,5,6,6],"right_children":[2,4,6,8,10,12,14,-1,-1,-1,-1,-1,-1,-1,-1],"split_conditions":[6.3923556E-1,9.87014E-2,7.38357E-1,4.557546E-1,4.0076697E-1,2.6899537E-1,3.2687083E-1,-3.2317974E-2,9.031003E-2,-9.459876E-2,9.24189E-2,6.7596704E-2,-1.0082143E-1,1.17703296E-1,3.6095772E-2],"split_indices":[15,3,23,21,1,12,8,0,0,0,0,0,0,0,0],"split_type":[0,0,0,0,0,0,0,0,0,0,0,0,0,0,0],"sum_hessian":[1.8340332E2,1.46435E2,3.696832E1,8.712217E1,5.9312828E1,4.5545325E0,3.2413788E1,5.0333088E1,3.6789085E1,5.1044113E1,8.268714E0,1.5755713E0,2.9789612E0,1.8382078E1,1.403171E1],"tree_param":{"num_deleted":"0","num_feature":"34","num_nodes":"15","size_leaf_vector":"1"}},{"base_weights":[1.5261774E-2,5.6562227E-1,-1.9559507E-1,6.855829E-1,-4.8018777E-1,-4.8437136E-1,5.522868E-1,4.6054292E-2,1.14027046E-1,3.4732733E-2,-7.458267E-2,-7.149305E-2,6.3690186E-2,1.1403265E-1,-1.1245138E-2],"categories":[],"categories_nodes":[],"categories_segments":[],"categories_sizes":[],"default_left":[0,0,0,0,0,0,0,0,0,0,0,0,0,0,0],"id":35,"left_children":[1,3,5,7,9,11,13,-1,-1,-1,-1,-1,-1,-1,-1],"loss_changes":[2.0782423E1,6.5517693E0,2.8242813E1,4.069929E0,1.5102644E0,2.4751646E1,1.4415558E1,0E0,0E0,0E0,0E0,0E0,0E0,0E0,0E0],"parents":[2147483647,0,0,1,1,2,2,3,3,4,4,5,5,6,6],"right_children":[2,4,6,8,10,12,14,-1,-1,-1,-1,-1,-1,-1,-1],"split_conditions":[1.6470037E-1,9.1838366E-1,6.840222E-1,6.373509E-1,3.835968E-1,4.6144822E-1,4.2027718E-1,4.6054292E-2,1.14027046E-1,3.4732733E-2,-7.458267E-2,-7.149305E-2,6.3690186E-2,1.1403265E-1,-1.1245138E-2],"split_indices":[16,27,21,15,10,26,6,0,0,0,0,0,0,0,0],"split_type":[0,0,0,0,0,0,0,0,0,0,0,0,0,0,0],"sum_hessian":[1.7713248E2,4.8599564E1,1.2853291E2,4.3907555E1,4.692007E0,9.298238E1,3.5550533E1,3.0717384E1,1.3190172E1,1.0654413E0,3.6265657E0,7.7424545E1,1.5557842E1,1.848389E1,1.7066643E1],"tree_param":{"num_deleted":"0","num_feature":"34","num_nodes":"15","size_leaf_vector":"1"}},{"base_weights":[1.5477571E-2,5.754682E-1,-1.8698345E-1,-9.388649E-2,8.499682E-1,-3.4060475E-1,9.960555E-1,6.158924E-2,-9.0376094E-2,1.22409046E-1,3.8041983E-2,-4.7070798E-2,1.1180154E-1,-2.6840393E-3,1.1063831E-1],"categories":[],"categories_nodes":[],"categories_segments":[],"categories_sizes":[],"default_left":[0,0,0,0,0,0,0,0,0,0,0,0,0,0,0],"id":36,"left_children":[1,3,5,7,9,11,13,-1,-1,-1,-1,-1,-1,-1,-1],"loss_changes":[1.9591927E1,8.509626E0,2.3415829E1,8.744318E0,5.2674446E0,2.1994633E1,1.7053518E0,0E0,0E0,0E0,0E0,0E0,0E0,0E0,0E0],"parents":[2147483647,0,0,1,1,2,2,3,3,4,4,5,5,6,6],"right_children":[2,4,6,8,10,12,14,-1,-1,-1,-1,-1,-1,-1,-1],"split_conditions":[2.7249953E-1,3.7136814E-1,8.522801E-1,6.0810022E-2,1.2254329E-1,4.9625197E-1,3.7476254E-1,6.158924E-2,-9.0376094E-2,1.22409046E-1,3.8041983E-2,-4.7070798E-2,1.1180154E-1,-2.6840393E-3,1.1063831E-1],"split_indices":[4,15,19,14,1,28,13,0,0,0,0,0,0,0,0],"split_type":[0,0,0,0,0,0,0,0,0,0,0,0,0,0,0],"sum_hessian":[1.7085538E2,4.487963E1,1.2597574E2,1.3243642E1,3.163599E1,1.121277E2,1.384804E1,7.1856313E0,6.0580106E0,1.6712784E1,1.4923206E1,1.0356721E2,8.560496E0,1.4218805E0,1.2426159E1],"tree_param":{"num_deleted":"0","num_feature":"34","num_nodes":"15","size_leaf_vector":"1"}},{"base_weights":[1.684865E-2,-9.07678E-2,1.0147589E-1,7.667116E-1,-2.581925E-1,9.475633E-2,-7.1337484E-2,-7.377534E-2,1.3910115E-2],"categories":[],"categories_nodes":[],"categories_segments":[],"categories_sizes":[],"default_left":[0,0,0,0,0,0,0,0,0],"id":37,"left_children":[1,3,-1,5,7,-1,-1,-1,-1],"loss_changes":[1.7958347E1,2.1888739E1,0E0,7.349992E0,2.4329096E1,0E0,0E0,0E0,0E0],"parents":[2147483647,0,0,1,1,3,3,4,4],"right_children":[2,4,-1,6,8,-1,-1,-1,-1],"split_conditions":[5.872799E-1,2.5709432E-1,1.0147589E-1,5.4641944E-1,5.159568E-1,9.475633E-2,-7.1337484E-2,-7.377534E-2,1.3910115E-2],"split_indices":[24,24,0,2,19,0,0,0,0],"split_type":[0,0,0,0,0,0,0,0,0],"sum_hessian":[1.6536543E2,1.5008864E2,1.527679E1,2.3933226E1,1.2615541E2,2.1647867E1,2.285359E0,5.677143E1,6.938398E1],"tree_param":{"num_deleted":"0","num_feature":"34","num_nodes":"9","size_leaf_vector":"1"}},{"base_weights":[1.6374752E-2,-9.399379E-2,9.582064E-1,-3.1665528E-1,5.345256E-1,1.1538245E-1,2.9590124E-1,6.746668E-3,-9.598542E-2,1.0665517E-2,1.1180635E-1,-5.312086E-2,7.905393E-2],"categories":[],"categories_nodes":[],"categories_segments":[],"categories_sizes":[],"default_left":[0,0,0,0,0,0,0,0,0,0,0,0,0],"id":38,"left_children":[1,3,5,7,9,-1,11,-1,-1,-1,-1,-1,-1],"loss_changes":[1.6832565E1,2.047295E1,1.8590031E0,2.6687988E1,9.449433E0,0E0,2.554515E0,0E0,0E0,0E0,0E0,0E0,0E0],"parents":[2147483647,0,0,1,1,2,2,3,3,4,4,6,6],"right_children":[2,4,6,8,10,-1,12,-1,-1,-1,-1,-1,-1],"split_conditions":[3.6993095E-1,6.8821704E-1,5.352135E-1,1.535E-1,3.837544E-1,1.1538245E-1,5.415699E-1,6.746668E-3,-9.598542E-2,1.0665517E-2,1.1180635E-1,-5.312086E-2,7.905393E-2],"split_indices":[1,19,14,3,24,0,12,0,0,0,0,0,0],"split_type":[0,0,0,0,0,0,0,0,0,0,0,0,0],"sum_hessian":[1.6006519E2,1.4408122E2,1.5983957E1,1.06757225E2,3.7324E1,1.1766482E1,4.2174754E0,6.740043E1,3.93568E1,2.2216707E1,1.5107294E1,1.5506386E0,2.6668365E0],"tree_param":{"num_deleted":"0","num_feature":"34","num_nodes":"13","size_leaf_vector":"1"}},{"base_weights":[1.6225554E-2,-1.1275558E-1,7.9369235E-1,4.80006E-1,-3.963475E-1,8.805731E-1,-4.8664328E-2,9.988903E-2,1.9624997E-2,-8.311796E-2,3.1943172E-2,2.7342606E-2,1.00592785E-1],"categories":[],"categories_nodes":[],"categories_segments":[],"categories_sizes":[],"default_left":[0,0,0,0,0,0,0,0,0,0,0,0,0],"id":39,"left_children":[1,3,5,7,9,11,-1,-1,-1,-1,-1,-1,-1],"loss_changes":[1.5821836E1,2.2957735E1,2.9255867E0,6.323703E0,2.8948969E1,1.3519821E0,0E0,0E0,0E0,0E0,0E0,0E0,0E0],"parents":[2147483647,0,0,1,1,2,2,3,3,4,4,5,5],"right_children":[2,4,6,8,10,12,-1,-1,-1,-1,-1,-1,-1],"split_conditions":[8.258777E-1,4.764819E-2,7.0028484E-1,3.3312106E-1,3.483042E-1,4.14953E-1,-4.8664328E-2,9.988903E-2,1.9624997E-2,-8.311796E-2,3.1943172E-2,2.7342606E-2,1.00592785E-1],"split_indices":[21,20,15,12,28,11,0,0,0,0,0,0,0],"split_type":[0,0,0,0,0,0,0,0,0,0,0,0,0],"sum_hessian":[1.5588643E2,1.344382E2,2.1448223E1,4.3280678E1,9.115753E1,2.0377672E1,1.0705513E0,1.4409965E1,2.8870714E1,5.660753E1,3.4550003E1,4.0316863E0,1.6345985E1],"tree_param":{"num_deleted":"0","num_feature":"34","num_nodes":"13","size_leaf_vector":"1"}},{"base_weights":[1.6075633E-2,-8.427568E-2,9.952058E-2,5.876092E-1,-2.6741374E-1,7.1590394E-2,-7.437694E-2,-7.44582E-2,1.1585825E-2],"categories":[],"categories_nodes":[],"categories_segments":[],"categories_sizes":[],"default_left":[0,0,0,0,0,0,0,0,0],"id":40,"left_children":[1,3,-1,5,7,-1,-1,-1,-1],"loss_changes":[1.4957077E1,1.7164858E1,0E0,5.642787E0,2.0076035E1,0E0,0E0,0E0,0E0],"parents":[2147483647,0,0,1,1,3,3,4,4],"right_children":[2,4,-1,6,8,-1,-1,-1,-1],"split_conditions":[5.872799E-1,3.7631202E-1,9.952058E-2,5.4641944E-1,5.159568E-1,7.1590394E-2,-7.437694E-2,-7.44582E-2,1.1585825E-2],"split_indices":[24,22,0,2,19,0,0,0,0],"split_type":[0,0,0,0,0,0,0,0,0],"sum_hessian":[1.5037045E2,1.372206E2,1.3149848E1,2.891834E1,1.0830226E2,2.6798279E1,2.1200614E0,4.782193E1,6.0480328E1],"tree_param":{"num_deleted":"0","num_feature":"34","num_nodes":"9","size_leaf_vector":"1"}},{"base_weights":[1.5171156E-2,-1.4902242E-1,5.752225E-1,4.388945E-1,-4.807947E-1,1.1257501E0,-1.9074278E-1,2.1357875E-2,1.09285556E-1,-9.025181E-2,1.569772E-2,1.1780129E-1,3.2627303E-2,-9.486224E-2,8.87815E-2],"categories":[],"categories_nodes":[],"categories_segments":[],"categories_sizes":[],"default_left":[0,0,0,0,0,0,0,0,0,0,0,0,0,0,0],"id":41,"left_children":[1,3,5,7,9,11,13,-1,-1,-1,-1,-1,-1,-1,-1],"loss_changes":[1.3611801E1,2.2552319E1,1.4363486E1,5.931902E0,1.996341E1,4.3737984E-1,1.3010418E1,0E0,0E0,0E0,0E0,0E0,0E0,0E0,0E0],"parents":[2147483647,0,0,1,1,2,2,3,3,4,4,5,5,6,6],"right_children":[2,4,6,8,10,12,14,-1,-1,-1,-1,-1,-1,-1,-1],"split_conditions":[6.840222E-1,4.1696843E-2,4.2027718E-1,3.4661597E-1,3.483042E-1,3.522205E-1,7.246492E-1,2.1357875E-2,1.09285556E-1,-9.025181E-2,1.569772E-2,1.1780129E-1,3.2627303E-2,-9.486224E-2,8.87815E-2],"split_indices":[21,20,6,1,28,6,19,0,0,0,0,0,0,0,0],"split_type":[0,0,0,0,0,0,0,0,0,0,0,0,0,0,0],"sum_hessian":[1.4609164E2,1.13538734E2,3.255291E1,4.0841927E1,7.26968E1,1.8666729E1,1.3886181E1,3.1362785E1,9.479143E0,4.351056E1,2.9186245E1,1.707691E1,1.5898181E0,8.226245E0,5.6599355E0],"tree_param":{"num_deleted":"0","num_feature":"34","num_nodes":"15","size_leaf_vector":"1"}},{"base_weights":[1.5528529E-2,-8.083941E-2,9.532241E-1,1.9848357E-1,-5.0173354E-1,3.1282198E-1,1.0675513E-1,-2.4264913E-2,8.23398E-2,-8.199727E-2,4.2390924E-2,7.438459E-2,-3.6123272E-2],"categories":[],"categories_nodes":[],"categories_segments":[],"categories_sizes":[],"default_left":[0,0,0,0,0,0,0,0,0,0,0,0,0],"id":42,"left_children":[1,3,5,7,9,11,-1,-1,-1,-1,-1,-1,-1],"loss_changes":[1.2871916E1,1.5303035E1,6.3788414E-1,2.1825861E1,1.5627241E1,1.2638359E0,0E0,0E0,0E0,0E0,0E0,0E0,0E0],"parents":[2147483647,0,0,1,1,2,2,3,3,4,4,5,5],"right_children":[2,4,6,8,10,12,-1,-1,-1,-1,-1,-1,-1],"split_conditions":[8.522801E-1,1.070939E-1,3.7476254E-1,4.4738936E-1,3.083167E-1,3.1150895E-1,1.0675513E-1,-2.4264913E-2,8.23398E-2,-8.199727E-2,4.2390924E-2,7.438459E-2,-3.6123272E-2],"split_indices":[19,5,13,15,5,11,0,0,0,0,0,0,0],"split_type":[0,0,0,0,0,0,0,0,0,0,0,0,0],"sum_hessian":[1.4059274E2,1.2831906E2,1.2273692E1,7.744905E1,5.0870007E1,2.4251943E0,9.848498E0,4.575904E1,3.1690008E1,3.7940197E1,1.2929811E1,1.4161186E0,1.0090758E0],"tree_param":{"num_deleted":"0","num_feature":"34","num_nodes":"13","size_leaf_vector":"1"}},{"base_weights":[1.547375E-2,-5.7832744E-2,1.2689345E-1,-2.4538273E-1,5.633336E-1,3.4269553E-2,-5.9949458E-2,1.1076366E-1,-2.021644E-2],"categories":[],"categories_nodes":[],"categories_segments":[],"categories_sizes":[],"default_left":[0,0,0,0,0,0,0,0,0],"id":43,"left_children":[1,3,-1,5,7,-1,-1,-1,-1],"loss_changes":[1.2763002E1,1.5449397E1,0E0,2.1372335E1,1.3049914E1,0E0,0E0,0E0,0E0],"parents":[2147483647,0,0,1,1,3,3,4,4],"right_children":[2,4,-1,6,8,-1,-1,-1,-1],"split_conditions":[4.5368823E-1,6.840222E-1,1.2689345E-1,4.1696843E-2,4.2027718E-1,3.4269553E-2,-5.9949458E-2,1.1076366E-1,-2.021644E-2],"split_indices":[30,21,0,20,6,0,0,0,0],"split_type":[0,0,0,0,0,0,0,0,0],"sum_hessian":[1.3710052E2,1.304266E2,6.6739144E0,1.0064394E2,2.9782661E1,3.7838043E1,6.2805897E1,1.7144917E1,1.2637745E1],"tree_param":{"num_deleted":"0","num_feature":"34","num_nodes":"9","size_leaf_vector":"1"}},{"base_weights":[1.6009523E-2,-7.7869676E-2,9.7347446E-2,5.9474534E-1,-2.4325715E-1,8.9863874E-2,-5.3826566E-3,-3.283776E-2,1.2923993E-1],"categories":[],"categories_nodes":[],"categories_segments":[],"categories_sizes":[],"default_left":[0,0,0,0,0,0,0,0,0],"id":44,"left_children":[1,3,-1,5,7,-1,-1,-1,-1],"loss_changes":[1.2115761E1,1.3817678E1,0E0,4.8867235E0,1.3412836E1,0E0,0E0,0E0,0E0],"parents":[2147483647,0,0,1,1,3,3,4,4],"right_children":[2,4,-1,6,8,-1,-1,-1,-1],"split_conditions":[5.872799E-1,3.1932575E-1,9.7347446E-2,4.4265556E-1,4.5368823E-1,8.9863874E-2,-5.3826566E-3,-3.283776E-2,1.2923993E-1],"split_indices":[24,12,0,14,30,0,0,0,0],"split_type":[0,0,0,0,0,0,0,0,0],"sum_hessian":[1.3294691E2,1.2191214E2,1.1034784E1,2.3548119E1,9.836401E1,1.5772313E1,7.775806E0,9.3942986E1,4.421033E0],"tree_param":{"num_deleted":"0","num_feature":"34","num_nodes":"9","size_leaf_vector":"1"}},{"base_weights":[1.7553901E-2,-7.705136E-2,9.435211E-1,1.8825817E-1,-4.929431E-1,1.0228682E0,1.6074821E-2,-2.3147887E-2,7.841983E-2,-7.4937046E-2,5.7279743E-2,1.0353319E-2,1.1182183E-1],"categories":[],"categories_nodes":[],"categories_segments":[],"categories_sizes":[],"default_left":[0,0,0,0,0,0,0,0,0,0,0,0,0],"id":45,"left_children":[1,3,5,7,9,11,-1,-1,-1,-1,-1,-1,-1],"loss_changes":[1.15166445E1,1.3273066E1,5.92412E-1,1.8604671E1,1.3218821E1,8.377209E-1,0E0,0E0,0E0,0E0,0E0,0E0,0E0],"parents":[2147483647,0,0,1,1,2,2,3,3,4,4,5,5],"right_children":[2,4,6,8,10,12,-1,-1,-1,-1,-1,-1,-1],"split_conditions":[8.522801E-1,1.070939E-1,9.570736E-1,4.500389E-1,8.4897226E-1,5.799246E-1,1.6074821E-2,-2.3147887E-2,7.841983E-2,-7.4937046E-2,5.7279743E-2,1.0353319E-2,1.1182183E-1],"split_indices":[19,5,19,15,21,25,0,0,0,0,0,0,0],"split_type":[0,0,0,0,0,0,0,0,0,0,0,0,0],"sum_hessian":[1.2963661E2,1.1845133E2,1.1185281E1,7.26519E1,4.5799435E1,9.877326E0,1.3079548E0,4.2986732E1,2.9665169E1,3.7156162E1,8.643271E0,1.1241801E0,8.753146E0],"tree_param":{"num_deleted":"0","num_feature":"34","num_nodes":"13","size_leaf_vector":"1"}},{"base_weights":[1.7629167E-2,-7.035547E-2,9.607165E-2,-1.626246E-1,1.0257154E-1,-5.0258256E-2,2.1690028E-2],"categories":[],"categories_nodes":[],"categories_segments":[],"categories_sizes":[],"default_left":[0,0,0,0,0,0,0],"id":46,"left_children":[1,3,-1,5,-1,-1,-1],"loss_changes":[1.0646962E1,1.2054981E1,0E0,1.4209273E1,0E0,0E0,0E0],"parents":[2147483647,0,0,1,1,3,3],"right_children":[2,4,-1,6,-1,-1,-1],"split_conditions":[5.872799E-1,4.0497512E-1,9.607165E-2,5.688792E-1,1.0257154E-1,-5.0258256E-2,2.1690028E-2],"split_indices":[24,3,0,19,0,0,0],"split_type":[0,0,0,0,0,0,0],"sum_hessian":[1.26497314E2,1.1654933E2,9.947986E0,1.0828532E2,8.264015E0,5.694912E1,5.1336197E1],"tree_param":{"num_deleted":"0","num_feature":"34","num_nodes":"7","size_leaf_vector":"1"}},{"base_weights":[1.784362E-2,-7.023758E-2,9.245324E-1,3.10758E-1,-3.852322E-1,-3.4296565E-2,1.13424435E-1,-9.1512E-3,9.9079035E-2,-5.7995763E-2,8.475846E-2],"categories":[],"categories_nodes":[],"categories_segments":[],"categories_sizes":[],"default_left":[0,0,0,0,0,0,0,0,0,0,0],"id":47,"left_children":[1,3,5,7,9,-1,-1,-1,-1,-1,-1],"loss_changes":[1.0042012E1,1.3896593E1,3.3480835E0,1.4454734E1,1.5684457E1,0E0,0E0,0E0,0E0,0E0,0E0],"parents":[2147483647,0,0,1,1,2,2,3,3,4,4],"right_children":[2,4,6,8,10,-1,-1,-1,-1,-1,-1],"split_conditions":[4.8381382E-1,4.4718874E-1,4.125411E-1,5.530382E-1,8.522801E-1,-3.4296565E-2,1.13424435E-1,-9.1512E-3,9.9079035E-2,-5.7995763E-2,8.475846E-2],"split_indices":[26,14,24,21,19,0,0,0,0,0,0],"split_type":[0,0,0,0,0,0,0,0,0,0,0],"sum_hessian":[1.2392859E2,1.1379627E2,1.0132319E1,5.150856E1,6.2287712E1,1.3482276E0,8.784092E0,3.2907635E1,1.8600927E1,5.4248623E1,8.039088E0],"tree_param":{"num_deleted":"0","num_feature":"34","num_nodes":"11","size_leaf_vector":"1"}},{"base_weights":[1.8431948E-2,9.3606435E-2,-6.776952E-2,-1.6448165E-1,9.437721E-2,-2.5017101E-2,1.1761594E-1],"categories":[],"categories_nodes":[],"categories_segments":[],"categories_sizes":[],"default_left":[0,0,0,0,0,0,0],"id":48,"left_children":[1,-1,3,5,-1,-1,-1],"loss_changes":[9.6970415E0,0E0,1.11376915E1,1.2163214E1,0E0,0E0,0E0],"parents":[2147483647,0,0,2,2,3,3],"right_children":[2,-1,4,6,-1,-1,-1],"split_conditions":[2.2514004E-1,9.3606435E-2,5.4726756E-1,4.5368823E-1,9.437721E-2,-2.5017101E-2,1.1761594E-1],"split_indices":[12,0,8,30,0,0,0],"split_type":[0,0,0,0,0,0,0],"sum_hessian":[1.2078827E2,9.525743E0,1.1126253E2,1.0231748E2,8.945044E0,9.6935104E1,5.3823776E0],"tree_param":{"num_deleted":"0","num_feature":"34","num_nodes":"7","size_leaf_vector":"1"}},{"base_weights":[1.9959712E-2,-6.603004E-2,9.54264E-1,2.3688312E-1,-4.4004384E-1,1.0605513E-1,2.2842107E-2,-1.788005E-2,1.0069442E-1,-7.324942E-2,8.456033E-2],"categories":[],"categories_nodes":[],"categories_segments":[],"categories_sizes":[],"default_left":[0,0,0,0,0,0,0,0,0,0,0],"id":49,"left_children":[1,3,5,7,9,-1,-1,-1,-1,-1,-1],"loss_changes":[9.641458E0,1.2579036E1,5.379238E-1,1.9862417E1,1.9276812E1,0E0,0E0,0E0,0E0,0E0,0E0],"parents":[2147483647,0,0,1,1,2,2,3,3,4,4],"right_children":[2,4,6,8,10,-1,-1,-1,-1,-1,-1],"split_conditions":[4.0076697E-1,9.08758E-2,4.2856988E-1,4.500389E-1,8.522801E-1,1.0605513E-1,2.2842107E-2,-1.788005E-2,1.0069442E-1,-7.324942E-2,8.456033E-2],"split_indices":[1,3,16,15,19,0,0,0,0,0,0],"split_type":[0,0,0,0,0,0,0,0,0,0,0],"sum_hessian":[1.1822299E2,1.0911023E2,9.112757E0,6.048786E1,4.862237E1,7.546562E0,1.566195E0,3.978142E1,2.070644E1,3.9962276E1,8.660097E0],"tree_param":{"num_deleted":"0","num_feature":"34","num_nodes":"11","size_leaf_vector":"1"}}]},"name":"gbtree"},"learner_model_param":{"base_score":"5.003253E-1","boost_from_average":"1","num_class":"0","num_feature":"34","num_target":"1"},"objective":{"name":"binary:logistic","reg_loss_param":{"scale_pos_weight":"1"}}},"version":[2,1,3]}