{"learner":{"attributes":{"scikit_learn":"{\"_estimator_type\": \"classifier\"}"},"feature_names":["x0","y0","x1","y1","x2","y2","x3","y3","x4","y4","x5","y5","x6","y6","x7","y7","x8","y8","x9","y9","x10","y10","x11","y11","x12","y12","x13","y13","x14","y14","x15","y15","x16","y16"],"feature_types":["float","float","float","float","float","float","float","float","float","float","float","float","float","float","float","float","float","float","float","float","float","float","float","float","float","float","float","float","float","float","float","float","float","float"],"gradient_booster":{"model":{"gbtree_model_param":{"num_parallel_tree":"1","num_trees":"50"},"iteration_indptr":[0,1,2,3,4,5,6,7,8,9,10,11,12,13,14,15,16,17,18,19,20,21,22,23,24,25,26,27,28,29,30,31,32,33,34,35,36,37,38,39,40,41,42,43,44,45,46,47,48,49,50],"tree_info":[0,0,0,0,0,0,0,0,0,0,0,0,0,0,0,0,0,0,0,0,0,0,0,0,0,0,0,0,0,0,0,0,0,0,0,0,0,0,0,0,0,0,0,0,0,0,0,0,0,0],"trees":[{"base_weights":[-0E0,-5.3137004E-1,1.9124424E0,1.8130841E0,-1.0142692E0,1.9351101E0,-1.1111112E-1,1.8633775E-1,-1E-1,-1.3909465E-1,1.00487806E-1,1.4520548E-1,1.9697733E-1],"categories":[],"categories_nodes":[],"categories_segments":[],"categories_sizes":[],"default_left":[0,0,0,0,0,0,0,0,0,0,0,0,0],"id":0,"left_children":[1,3,5,7,9,11,-1,-1,-1,-1,-1,-1,-1],"loss_changes":[1.0141821E3,8.860364E2,1.7022644E1,2.0786316E1,4.9443524E2,7.5231934E-1,0E0,0E0,0E0,0E0,0E0,0E0,0E0],"parents":[2147483647,0,0,1,1,2,2,3,3,4,4,5,5],"right_children":[2,4,6,8,10,12,-1,-1,-1,-1,-1,-1,-1],"split_conditions":[7.6971895E-1,5.3916013E-1,7.3698044E-1,5.949686E-1,6.855857E-1,8.268535E-1,-1.1111112E-1,1.8633775E-1,-1E-1,-1.3909465E-1,1.00487806E-1,1.4520548E-1,1.9697733E-1],"split_indices":[21,25,15,21,19,21,0,0,0,0,0,0,0],"split_type":[0,0,0,0,0,0,0,0,0,0,0,0,0],"sum_hessian":[9.96E2,7.8E2,2.16E2,1.3275E2,6.4725E2,2.1475E2,1.25E0,1.3075E2,2E0,5.4575E2,1.015E2,1.725E1,1.975E2],"tree_param":{"num_deleted":"0","num_feature":"34","num_nodes":"13","size_leaf_vector":"1"}},{"base_weights":[3.6818767E-4,-4.8070216E-1,1.7388695E0,1.115049E0,-1.0900803E0,1.7600533E0,-1.0512451E-1,1.378181E-1,-4.4260155E-2,-1.3696133E-1,1.8760675E-1,1.3216081E-1,1.7915992E-1],"categories":[],"categories_nodes":[],"categories_segments":[],"categories_sizes":[],"default_left":[0,0,0,0,0,0,0,0,0,0,0,0,0],"id":1,"left_children":[1,3,5,7,9,11,-1,-1,-1,-1,-1,-1,-1],"loss_changes":[8.296349E2,7.5676263E2,1.4557983E1,8.881732E1,4.6918286E2,5.887451E-1,0E0,0E0,0E0,0E0,0E0,0E0,0E0],"parents":[2147483647,0,0,1,1,2,2,3,3,4,4,5,5],"right_children":[2,4,6,8,10,12,-1,-1,-1,-1,-1,-1,-1],"split_conditions":[7.6971895E-1,1.441239E-1,7.3698044E-1,8.20863E-1,5.220392E-1,8.268535E-1,-1.0512451E-1,1.378181E-1,-4.4260155E-2,-1.3696133E-1,1.8760675E-1,1.3216081E-1,1.7915992E-1],"split_indices":[21,21,15,27,26,21,0,0,0,0,0,0,0],"split_type":[0,0,0,0,0,0,0,0,0,0,0,0,0],"sum_hessian":[9.899816E2,7.759795E2,2.140021E2,2.142093E2,5.617702E2,2.1275595E2,1.2461498E0,1.8335124E2,3.0858076E1,5.138798E2,4.7890358E1,1.7159391E1,1.9559656E2],"tree_param":{"num_deleted":"0","num_feature":"34","num_nodes":"13","size_leaf_vector":"1"}},{"base_weights":[9.010758E-4,-4.3764368E-1,1.6064692E0,1.0124971E0,-9.939392E-1,1.6266781E0,-9.978762E-2,1.7304944E-1,4.5040637E-2,-1.2486311E-1,1.7235786E-1,1.2133322E-1,1.6568409E-1],"categories":[],"categories_nodes":[],"categories_segments":[],"categories_sizes":[],"default_left":[0,0,0,0,0,0,0,0,0,0,0,0,0],"id":2,"left_children":[1,3,5,7,9,11,-1,-1,-1,-1,-1,-1,-1],"loss_changes":[6.886672E2,6.2074316E2,1.2666992E1,8.538141E1,3.867956E2,5.904541E-1,0E0,0E0,0E0,0E0,0E0,0E0,0E0],"parents":[2147483647,0,0,1,1,2,2,3,3,4,4,5,5],"right_children":[2,4,6,8,10,12,-1,-1,-1,-1,-1,-1,-1],"split_conditions":[7.6971895E-1,1.441239E-1,7.3698044E-1,3.1932575E-1,5.220392E-1,8.268535E-1,-9.978762E-2,1.7304944E-1,4.5040637E-2,-1.2486311E-1,1.7235786E-1,1.2133322E-1,1.6568409E-1],"split_indices":[21,21,15,12,26,21,0,0,0,0,0,0,0],"split_type":[0,0,0,0,0,0,0,0,0,0,0,0,0],"sum_hessian":[9.760644E2,7.672305E2,2.0883388E2,2.1249153E2,5.54739E2,2.0759837E2,1.2355013E0,9.239295E1,1.2009859E2,5.0769702E2,4.704198E1,1.6922438E1,1.9067593E2],"tree_param":{"num_deleted":"0","num_feature":"34","num_nodes":"13","size_leaf_vector":"1"}},{"base_weights":[1.6771359E-3,-4.011717E-1,1.5020074E0,1.4494876E0,-7.722796E-1,1.5215814E0,-9.4994985E-2,1.4904141E-1,-7.77993E-2,-1.1058791E-1,9.811067E-2,1.1211379E-1,1.5514652E-1],"categories":[],"categories_nodes":[],"categories_segments":[],"categories_sizes":[],"default_left":[0,0,0,0,0,0,0,0,0,0,0,0,0],"id":3,"left_children":[1,3,5,7,9,11,-1,-1,-1,-1,-1,-1,-1],"loss_changes":[5.781824E2,5.1905005E2,1.1163757E1,1.26744995E1,3.6889755E2,6.691284E-1,0E0,0E0,0E0,0E0,0E0,0E0,0E0],"parents":[2147483647,0,0,1,1,2,2,3,3,4,4,5,5],"right_children":[2,4,6,8,10,12,-1,-1,-1,-1,-1,-1,-1],"split_conditions":[7.6971895E-1,5.3916013E-1,7.3698044E-1,5.949686E-1,6.855857E-1,8.268535E-1,-9.4994985E-2,1.4904141E-1,-7.77993E-2,-1.1058791E-1,9.811067E-2,1.1211379E-1,1.5514652E-1],"split_indices":[21,25,15,21,19,21,0,0,0,0,0,0,0],"split_type":[0,0,0,0,0,0,0,0,0,0,0,0,0],"sum_hessian":[9.546151E2,7.531278E2,2.0148732E2,1.25311646E2,6.2781616E2,2.0026802E2,1.2193027E0,1.233757E2,1.9359438E0,5.277716E2,1.0004457E2,1.6582241E1,1.8368578E2],"tree_param":{"num_deleted":"0","num_feature":"34","num_nodes":"13","size_leaf_vector":"1"}},{"base_weights":[2.266311E-3,-3.6796385E-1,1.438977E0,1.1955646E0,-7.712079E-1,1.578707E0,-1.20262E0,1.5268995E-1,-3.4843355E-2,-1.02752306E-1,1.4333881E-1,1.589912E-1,8.038794E-2,1.1308829E-1,-1.7306171E-1],"categories":[],"categories_nodes":[],"categories_segments":[],"categories_sizes":[],"default_left":[0,0,0,0,0,0,0,0,0,0,0,0,0,0,0],"id":4,"left_children":[1,3,5,7,9,11,13,-1,-1,-1,-1,-1,-1,-1,-1],"loss_changes":[4.9568652E2,4.6808463E2,7.2375916E1,7.845068E1,3.346667E2,3.0007935E-1,1.4475187E1,0E0,0E0,0E0,0E0,0E0,0E0,0E0,0E0],"parents":[2147483647,0,0,1,1,2,2,3,3,4,4,5,5,6,6],"right_children":[2,4,6,8,10,12,14,-1,-1,-1,-1,-1,-1,-1,-1],"split_conditions":[7.804806E-1,1.3325357E-1,1.7599717E-1,7.9048616E-1,7.512656E-1,7.09727E-1,2.5874385E-1,1.5268995E-1,-3.4843355E-2,-1.02752306E-1,1.4333881E-1,1.589912E-1,8.038794E-2,1.1308829E-1,-1.7306171E-1],"split_indices":[19,19,26,29,18,15,0,0,0,0,0,0,0,0,0],"split_type":[0,0,0,0,0,0,0,0,0,0,0,0,0,0,0],"sum_hessian":[9.2989746E2,7.399591E2,1.8993834E2,1.5130972E2,5.8864935E2,1.8077826E2,9.160085E0,1.2458536E2,2.6724361E1,5.278172E2,6.0832203E1,1.7716426E2,3.6139898E0,1.4795078E0,7.680577E0],"tree_param":{"num_deleted":"0","num_feature":"34","num_nodes":"15","size_leaf_vector":"1"}},{"base_weights":[3.0715065E-3,-3.5094583E-1,1.3724811E0,8.505893E-1,-8.235746E-1,1.3912302E0,-8.620642E-2,1.15168266E-1,-2.3043338E-2,-1.0519393E-1,1.5456994E-1,1.0080463E-1,1.4211868E-1],"categories":[],"categories_nodes":[],"categories_segments":[],"categories_sizes":[],"default_left":[0,0,0,0,0,0,0,0,0,0,0,0,0],"id":5,"left_children":[1,3,5,7,9,11,-1,-1,-1,-1,-1,-1,-1],"loss_changes":[4.406578E2,4.1085254E2,9.02179E0,6.6791626E1,2.8236093E2,6.972046E-1,0E0,0E0,0E0,0E0,0E0,0E0,0E0],"parents":[2147483647,0,0,1,1,2,2,3,3,4,4,5,5],"right_children":[2,4,6,8,10,12,-1,-1,-1,-1,-1,-1,-1],"split_conditions":[7.6971895E-1,1.5159756E-1,7.3698044E-1,1.9280097E-1,5.117324E-1,8.268535E-1,-8.620642E-2,1.15168266E-1,-2.3043338E-2,-1.0519393E-1,1.5456994E-1,1.0080463E-1,1.4211868E-1],"split_indices":[21,21,15,26,26,21,0,0,0,0,0,0,0],"split_type":[0,0,0,0,0,0,0,0,0,0,0,0,0],"sum_hessian":[9.06964E2,7.2125116E2,1.8571283E2,2.0338873E2,5.178624E2,1.8454182E2,1.1710101E0,1.5902946E2,4.4359272E1,4.7284302E2,4.50194E1,1.5893421E1,1.6864839E2],"tree_param":{"num_deleted":"0","num_feature":"34","num_nodes":"13","size_leaf_vector":"1"}},{"base_weights":[3.611263E-3,-3.2530466E-1,1.3266009E0,1.0747803E0,-6.796068E-1,1.4614571E0,-1.0292757E0,1.381533E-1,-2.8894726E-2,-9.1366485E-2,1.3263665E-1,1.4728409E-1,7.025576E-2,1.10746995E-1,-1.5227894E-1],"categories":[],"categories_nodes":[],"categories_segments":[],"categories_sizes":[],"default_left":[0,0,0,0,0,0,0,0,0,0,0,0,0,0,0],"id":6,"left_children":[1,3,5,7,9,11,13,-1,-1,-1,-1,-1,-1,-1,-1],"loss_changes":[3.826359E2,3.500712E2,5.7128754E1,6.0056915E1,2.6537476E2,3.994751E-1,1.2301474E1,0E0,0E0,0E0,0E0,0E0,0E0,0E0,0E0],"parents":[2147483647,0,0,1,1,2,2,3,3,4,4,5,5,6,6],"right_children":[2,4,6,8,10,12,14,-1,-1,-1,-1,-1,-1,-1,-1],"split_conditions":[7.804806E-1,1.3325357E-1,1.7599717E-1,7.9048616E-1,7.512656E-1,7.09727E-1,2.5874385E-1,1.381533E-1,-2.8894726E-2,-9.1366485E-2,1.3263665E-1,1.4728409E-1,7.025576E-2,1.10746995E-1,-1.5227894E-1],"split_indices":[19,19,26,29,18,15,0,0,0,0,0,0,0,0,0],"split_type":[0,0,0,0,0,0,0,0,0,0,0,0,0,0,0],"sum_hessian":[8.7732306E2,7.0324054E2,1.7408249E2,1.4161023E2,5.616303E2,1.650162E2,9.066282E0,1.1559548E2,2.601474E1,5.0343393E2,5.819641E1,1.6165062E2,3.3655894E0,1.4676802E0,7.5986023E0],"tree_param":{"num_deleted":"0","num_feature":"34","num_nodes":"15","size_leaf_vector":"1"}},{"base_weights":[4.443536E-3,-3.116752E-1,1.2832065E0,1.4373822E0,-5.7223094E-1,1.3016447E0,-7.901735E-2,1.4847317E-1,-5.8158964E-2,-8.017297E-2,1.5632789E-1,9.18671E-2,1.3333745E-1],"categories":[],"categories_nodes":[],"categories_segments":[],"categories_sizes":[],"default_left":[0,0,0,0,0,0,0,0,0,0,0,0,0],"id":7,"left_children":[1,3,5,7,9,11,-1,-1,-1,-1,-1,-1,-1],"loss_changes":[3.4464618E2,3.123574E2,7.4887695E0,9.363693E0,2.9319574E2,8.1503296E-1,0E0,0E0,0E0,0E0,0E0,0E0,0E0],"parents":[2147483647,0,0,1,1,2,2,3,3,4,4,5,5],"right_children":[2,4,6,8,10,12,-1,-1,-1,-1,-1,-1,-1],"split_conditions":[7.6971895E-1,3.5169193E-1,7.3698044E-1,5.406693E-1,5.117324E-1,8.268535E-1,-7.901735E-2,1.4847317E-1,-5.8158964E-2,-8.017297E-2,1.5632789E-1,9.18671E-2,1.3333745E-1],"split_indices":[21,22,15,2,26,21,0,0,0,0,0,0,0],"split_type":[0,0,0,0,0,0,0,0,0,0,0,0,0],"sum_hessian":[8.5058685E2,6.8259985E2,1.6798697E2,8.7916664E1,5.946832E2,1.668752E2,1.1117785E0,8.6160614E1,1.7560512E0,5.3753955E2,5.714367E1,1.5059723E1,1.5181548E2],"tree_param":{"num_deleted":"0","num_feature":"34","num_nodes":"13","size_leaf_vector":"1"}},{"base_weights":[5.42428E-3,-3.9774692E-1,9.297874E-1,9.481874E-1,-8.2134E-1,1.0746312E0,-8.2650214E-1,1.2698792E-1,-3.388486E-2,-1.1125244E-1,1.0483936E-1,5.2197523E-2,1.3533275E-1,1.3844168E-1,-1.5231644E-1],"categories":[],"categories_nodes":[],"categories_segments":[],"categories_sizes":[],"default_left":[0,0,0,0,0,0,0,0,0,0,0,0,0,0,0],"id":8,"left_children":[1,3,5,7,9,11,13,-1,-1,-1,-1,-1,-1,-1,-1],"loss_changes":[3.069619E2,3.277647E2,6.452214E1,5.74657E1,2.3896204E2,3.495337E1,3.2333885E1,0E0,0E0,0E0,0E0,0E0,0E0,0E0,0E0],"parents":[2147483647,0,0,1,1,2,2,3,3,4,4,5,5,6,6],"right_children":[2,4,6,8,10,12,14,-1,-1,-1,-1,-1,-1,-1,-1],"split_conditions":[6.2313163E-1,1.5869428E-1,5.5834744E-2,7.9048616E-1,7.313439E-1,7.804806E-1,8.2473725E-2,1.2698792E-1,-3.388486E-2,-1.1125244E-1,1.0483936E-1,5.2197523E-2,1.3533275E-1,1.3844168E-1,-1.5231644E-1],"split_indices":[19,19,32,29,18,19,1,0,0,0,0,0,0,0,0],"split_type":[0,0,0,0,0,0,0,0,0,0,0,0,0,0,0],"sum_hessian":[8.2167596E2,5.725303E2,2.4914569E2,1.36757E2,4.3577325E2,2.3052231E2,1.862339E1,1.0942084E2,2.7336168E1,3.7740308E2,5.8370174E1,7.824166E1,1.5228064E2,4.225662E0,1.4397728E1],"tree_param":{"num_deleted":"0","num_feature":"34","num_nodes":"15","size_leaf_vector":"1"}},{"base_weights":[5.606479E-3,-2.834614E-1,1.1849624E0,7.087131E-1,-6.7890847E-1,1.2039508E0,-7.798274E-2,1.4081265E-2,1.2105431E-1,-8.718798E-2,1.4263164E-1,7.4062906E-2,1.2654944E-1],"categories":[],"categories_nodes":[],"categories_segments":[],"categories_sizes":[],"default_left":[0,0,0,0,0,0,0,0,0,0,0,0,0],"id":9,"left_children":[1,3,5,7,9,11,-1,-1,-1,-1,-1,-1,-1],"loss_changes":[2.7045633E2,2.5047713E2,6.765274E0,5.1718063E1,1.8653339E2,3.4844513E0,0E0,0E0,0E0,0E0,0E0,0E0,0E0],"parents":[2147483647,0,0,1,1,2,2,3,3,4,4,5,5],"right_children":[2,4,6,8,10,12,-1,-1,-1,-1,-1,-1,-1],"split_conditions":[7.513606E-1,1.5159756E-1,7.3698044E-1,5.302291E-1,5.220392E-1,8.268535E-1,-7.798274E-2,1.4081265E-2,1.2105431E-1,-8.718798E-2,1.4263164E-1,7.4062906E-2,1.2654944E-1],"split_indices":[21,21,15,10,26,21,0,0,0,0,0,0,0],"split_type":[0,0,0,0,0,0,0,0,0,0,0,0,0],"sum_hessian":[7.913421E2,6.361719E2,1.5517024E2,1.8107172E2,4.5510013E2,1.5406851E2,1.1017317E0,8.5544785E1,9.552694E1,4.1742365E2,3.7676487E1,1.9593788E1,1.3447472E2],"tree_param":{"num_deleted":"0","num_feature":"34","num_nodes":"13","size_leaf_vector":"1"}},{"base_weights":[6.137282E-3,-3.7071556E-1,8.717178E-1,9.058223E-1,-7.4316615E-1,1.0088389E0,-7.794374E-1,1.1961394E-1,-2.1487324E-2,-9.861892E-2,1.2863544E-1,4.949129E-2,1.2921612E-1,1.2771577E-1,-1.4167036E-1],"categories":[],"categories_nodes":[],"categories_segments":[],"categories_sizes":[],"default_left":[0,0,0,0,0,0,0,0,0,0,0,0,0,0,0],"id":10,"left_children":[1,3,5,7,9,11,13,-1,-1,-1,-1,-1,-1,-1,-1],"loss_changes":[2.4905089E2,2.5357669E2,5.321823E1,3.9493484E1,2.0463924E2,3.0558182E1,2.5821205E1,0E0,0E0,0E0,0E0,0E0,0E0,0E0,0E0],"parents":[2147483647,0,0,1,1,2,2,3,3,4,4,5,5,6,6],"right_children":[2,4,6,8,10,12,14,-1,-1,-1,-1,-1,-1,-1,-1],"split_conditions":[6.2313163E-1,1.3325357E-1,5.5834744E-2,7.9048616E-1,7.512656E-1,7.804806E-1,8.2473725E-2,1.1961394E-1,-2.1487324E-2,-9.861892E-2,1.2863544E-1,4.949129E-2,1.2921612E-1,1.2771577E-1,-1.4167036E-1],"split_indices":[19,19,32,29,18,19,1,0,0,0,0,0,0,0,0],"split_type":[0,0,0,0,0,0,0,0,0,0,0,0,0,0,0],"sum_hessian":[7.615089E2,5.309276E2,2.3058131E2,1.1959509E2,4.1133252E2,2.1326004E2,1.7321285E1,9.493483E1,2.4660261E1,3.6780423E2,4.352829E1,7.6763466E1,1.3649657E2,3.860027E0,1.3461258E1],"tree_param":{"num_deleted":"0","num_feature":"34","num_nodes":"15","size_leaf_vector":"1"}},{"base_weights":[6.4842934E-3,-2.5071406E-1,1.1589309E0,1.3007367E0,-4.668465E-1,1.180566E0,-7.689732E-2,1.3569057E-1,-8.4868856E-2,-1.06941156E-1,2.355886E-2,7.799337E-2,1.2187351E-1],"categories":[],"categories_nodes":[],"categories_segments":[],"categories_sizes":[],"default_left":[0,0,0,0,0,0,0,0,0,0,0,0,0],"id":11,"left_children":[1,3,5,7,9,11,-1,-1,-1,-1,-1,-1,-1],"loss_changes":[2.1741884E2,2.0169809E2,6.490036E0,1.0036522E1,2.2335689E2,1.0793304E0,0E0,0E0,0E0,0E0,0E0,0E0,0E0],"parents":[2147483647,0,0,1,1,2,2,3,3,4,4,5,5],"right_children":[2,4,6,8,10,12,-1,-1,-1,-1,-1,-1,-1],"split_conditions":[7.6971895E-1,3.5169193E-1,7.3698044E-1,5.406693E-1,5.6212354E-1,8.268535E-1,-7.689732E-2,1.3569057E-1,-8.4868856E-2,-1.06941156E-1,2.355886E-2,7.799337E-2,1.2187351E-1],"split_indices":[21,22,15,2,22,21,0,0,0,0,0,0,0],"split_type":[0,0,0,0,0,0,0,0,0,0,0,0,0],"sum_hessian":[7.315334E2,5.987003E2,1.3283305E2,7.259288E1,5.261074E2,1.3174228E2,1.0907792E0,7.1103516E1,1.4893707E0,2.8290372E2,2.4320374E2,1.3324022E1,1.1841826E2],"tree_param":{"num_deleted":"0","num_feature":"34","num_nodes":"13","size_leaf_vector":"1"}},{"base_weights":[6.4203176E-3,-3.4121472E-1,8.138579E-1,1.1295136E0,-6.3410765E-1,3.9239645E-1,1.3327627E0,1.2146866E-1,-7.917447E-2,-8.446262E-2,1.0972432E-1,1.3991891E-1,-3.7212204E-2,1.5412952E-1,9.012108E-2],"categories":[],"categories_nodes":[],"categories_segments":[],"categories_sizes":[],"default_left":[0,0,0,0,0,0,0,0,0,0,0,0,0,0,0],"id":12,"left_children":[1,3,5,7,9,11,13,-1,-1,-1,-1,-1,-1,-1,-1],"loss_changes":[1.9871329E2,2.138964E2,4.607312E1,1.4469788E1,1.5158104E2,9.210612E1,7.1669464E0,0E0,0E0,0E0,0E0,0E0,0E0,0E0,0E0],"parents":[2147483647,0,0,1,1,2,2,3,3,4,4,5,5,6,6],"right_children":[2,4,6,8,10,12,14,-1,-1,-1,-1,-1,-1,-1,-1],"split_conditions":[6.2313163E-1,5.834691E-1,5.1211554E-1,8.648828E-1,3.078925E-1,2.7778426E-1,8.4867525E-1,1.2146866E-1,-7.917447E-2,-8.446262E-2,1.0972432E-1,1.3991891E-1,-3.7212204E-2,1.5412952E-1,9.012108E-2],"split_indices":[19,23,6,27,9,0,25,0,0,0,0,0,0,0,0],"split_type":[0,0,0,0,0,0,0,0,0,0,0,0,0,0,0],"sum_hessian":[7.059473E2,4.9388638E2,2.1206094E2,8.154767E1,4.123387E2,1.17986725E2,9.407422E1,7.843812E1,3.1095467E0,3.680936E2,4.424511E1,5.056614E1,6.7420586E1,6.1692123E1,3.23821E1],"tree_param":{"num_deleted":"0","num_feature":"34","num_nodes":"15","size_leaf_vector":"1"}},{"base_weights":[7.2050905E-3,-2.5472224E-1,1.0009035E0,-4.9258608E-1,1.1736609E0,1.4174898E0,7.433194E-1,1.0095268E-1,-7.481745E-2,1.5377533E-1,-1.1454751E-1,1.9728953E-1,1.2814757E-1,-3.869834E-2,1.0981822E-1],"categories":[],"categories_nodes":[],"categories_segments":[],"categories_sizes":[],"default_left":[0,0,0,0,0,0,0,0,0,0,0,0,0,0,0],"id":13,"left_children":[1,3,5,7,9,11,13,-1,-1,-1,-1,-1,-1,-1,-1],"loss_changes":[1.7731409E2,1.8376445E2,1.4195618E1,1.7847284E2,6.700114E1,1.4902191E0,3.6490364E1,0E0,0E0,0E0,0E0,0E0,0E0,0E0,0E0],"parents":[2147483647,0,0,1,1,2,2,3,3,4,4,5,5,6,6],"right_children":[2,4,6,8,10,12,14,-1,-1,-1,-1,-1,-1,-1,-1],"split_conditions":[6.840222E-1,3.117534E-1,3.131522E-1,2.7778426E-1,5.972669E-1,7.635339E-1,8.268535E-1,1.0095268E-1,-7.481745E-2,1.5377533E-1,-1.1454751E-1,1.9728953E-1,1.2814757E-1,-3.869834E-2,1.0981822E-1],"split_indices":[21,7,2,0,17,21,21,0,0,0,0,0,0,0,0],"split_type":[0,0,0,0,0,0,0,0,0,0,0,0,0,0,0],"sum_hessian":[6.792726E2,5.381628E2,1.4110979E2,4.6189938E2,7.6263405E1,5.219412E1,8.8915665E1,6.673614E1,3.9516324E2,6.620628E1,1.0057117E1,7.6107974E0,4.458332E1,2.122372E1,6.769194E1],"tree_param":{"num_deleted":"0","num_feature":"34","num_nodes":"15","size_leaf_vector":"1"}},{"base_weights":[8.014162E-3,-2.1421482E-1,1.0766568E0,1.1732467E0,-4.0772814E-1,1.2193911E0,-8.2285786E-1,1.2328326E-1,-4.7637586E-2,-6.0906183E-2,1.4057451E-1,1.2347338E-1,3.704252E-2,7.2375536E-2,-1.1566587E-1],"categories":[],"categories_nodes":[],"categories_segments":[],"categories_sizes":[],"default_left":[0,0,0,0,0,0,0,0,0,0,0,0,0,0,0],"id":14,"left_children":[1,3,5,7,9,11,13,-1,-1,-1,-1,-1,-1,-1,-1],"loss_changes":[1.5603989E2,1.4653044E2,3.1671432E1,7.157341E0,1.7542795E2,9.1825867E-1,5.226737E0,0E0,0E0,0E0,0E0,0E0,0E0,0E0,0E0],"parents":[2147483647,0,0,1,1,2,2,3,3,4,4,5,5,6,6],"right_children":[2,4,6,8,10,12,14,-1,-1,-1,-1,-1,-1,-1,-1],"split_conditions":[7.804806E-1,3.5169193E-1,1.7599717E-1,5.4255E-1,5.117324E-1,7.09727E-1,2.5874385E-1,1.2328326E-1,-4.7637586E-2,-6.0906183E-2,1.4057451E-1,1.2347338E-1,3.704252E-2,7.2375536E-2,-1.1566587E-1],"split_indices":[19,22,26,2,26,15,0,0,0,0,0,0,0,0,0],"split_type":[0,0,0,0,0,0,0,0,0,0,0,0,0,0,0],"sum_hessian":[6.550849E2,5.429712E2,1.12113716E2,6.584066E1,4.7713052E2,1.0461104E2,7.502681E0,6.3789196E1,2.0514634E0,4.3005008E2,4.7080456E1,1.023077E2,2.303337E0,1.1244578E0,6.378223E0],"tree_param":{"num_deleted":"0","num_feature":"34","num_nodes":"15","size_leaf_vector":"1"}},{"base_weights":[8.911491E-3,-2.03383E-1,1.0959234E0,-4.520307E-1,9.260457E-1,1.3174521E0,-1.6386674E-1,-6.4314544E-2,1.3670117E-1,1.307751E-1,4.0518966E-2,-5.7573806E-2,1.3784358E-1,-9.878331E-2,9.651789E-2],"categories":[],"categories_nodes":[],"categories_segments":[],"categories_sizes":[],"default_left":[0,0,0,0,0,0,0,0,0,0,0,0,0,0,0],"id":15,"left_children":[1,3,5,7,9,11,13,-1,-1,-1,-1,-1,-1,-1,-1],"loss_changes":[1.4600075E2,1.4907277E2,2.9064964E1,1.5193195E2,1.8523842E1,1.0956284E1,1.6162386E1,0E0,0E0,0E0,0E0,0E0,0E0,0E0,0E0],"parents":[2147483647,0,0,1,1,2,2,3,3,4,4,5,5,6,6],"right_children":[2,4,6,8,10,12,14,-1,-1,-1,-1,-1,-1,-1,-1],"split_conditions":[3.117534E-1,6.840222E-1,4.6469408E-1,5.220392E-1,1.185941E-1,3.1192583E-1,5.1976216E-1,-6.4314544E-2,1.3670117E-1,1.307751E-1,4.0518966E-2,-5.7573806E-2,1.3784358E-1,-9.878331E-2,9.651789E-2],"split_indices":[7,21,16,26,7,1,20,0,0,0,0,0,0,0,0],"split_type":[0,0,0,0,0,0,0,0,0,0,0,0,0,0,0],"sum_hessian":[6.307111E2,5.283389E2,1.0237221E2,4.3350177E2,9.483716E1,8.70237E1,1.5348514E1,3.9287177E2,4.0630005E1,5.3857414E1,4.0979744E1,2.452326E0,8.457137E1,8.945354E0,6.4031587E0],"tree_param":{"num_deleted":"0","num_feature":"34","num_nodes":"15","size_leaf_vector":"1"}},{"base_weights":[9.613228E-3,-3.0026E-1,7.010551E-1,7.833453E-1,-6.4110756E-1,3.4148416E-1,1.1843687E0,7.6081827E-3,1.2796229E-1,-8.658075E-2,1.1939696E-1,1.3150464E-1,-2.8878355E-2,1.2807901E-1,1.6930802E-2],"categories":[],"categories_nodes":[],"categories_segments":[],"categories_sizes":[],"default_left":[0,0,0,0,0,0,0,0,0,0,0,0,0,0,0],"id":16,"left_children":[1,3,5,7,9,11,13,-1,-1,-1,-1,-1,-1,-1,-1],"loss_changes":[1.3093523E2,1.5636963E2,3.2460594E1,3.550457E1,1.3363504E2,6.778002E1,7.6394043E0,0E0,0E0,0E0,0E0,0E0,0E0,0E0,0E0],"parents":[2147483647,0,0,1,1,2,2,3,3,4,4,5,5,6,6],"right_children":[2,4,6,8,10,12,14,-1,-1,-1,-1,-1,-1,-1,-1],"split_conditions":[6.0650396E-1,1.5869428E-1,5.1211554E-1,5.302291E-1,7.512656E-1,2.7778426E-1,7.8208375E-1,7.6081827E-3,1.2796229E-1,-8.658075E-2,1.1939696E-1,1.3150464E-1,-2.8878355E-2,1.2807901E-1,1.6930802E-2],"split_indices":[19,19,6,10,18,0,14,0,0,0,0,0,0,0,0],"split_type":[0,0,0,0,0,0,0,0,0,0,0,0,0,0,0],"sum_hessian":[6.0912384E2,4.2101123E2,1.881126E2,1.00430244E2,3.2058096E2,1.0884311E2,7.9269485E1,4.1887764E1,5.854248E1,2.8607953E2,3.4501434E1,4.2345833E1,6.649727E1,7.215376E1,7.1157265E0],"tree_param":{"num_deleted":"0","num_feature":"34","num_nodes":"15","size_leaf_vector":"1"}},{"base_weights":[1.0215632E-2,-1.8887708E-1,1.0345329E0,5.877026E-1,-4.8193583E-1,1.0635041E0,-7.7213906E-2,2.6002614E-2,1.2709837E-1,-6.369563E-2,1.315755E-1,5.8797456E-2,1.1179777E-1],"categories":[],"categories_nodes":[],"categories_segments":[],"categories_sizes":[],"default_left":[0,0,0,0,0,0,0,0,0,0,0,0,0],"id":17,"left_children":[1,3,5,7,9,11,-1,-1,-1,-1,-1,-1,-1],"loss_changes":[1.1959625E2,1.12038826E2,5.81633E0,2.989288E1,1.0034433E2,1.786644E0,0E0,0E0,0E0,0E0,0E0,0E0,0E0],"parents":[2147483647,0,0,1,1,2,2,3,3,4,4,5,5],"right_children":[2,4,6,8,10,12,-1,-1,-1,-1,-1,-1,-1],"split_conditions":[7.6971895E-1,1.3934423E-1,7.3698044E-1,5.9794813E-1,5.5844116E-1,8.268535E-1,-7.7213906E-2,2.6002614E-2,1.2709837E-1,-6.369563E-2,1.315755E-1,5.8797456E-2,1.1179777E-1],"split_indices":[21,21,15,14,28,21,0,0,0,0,0,0,0],"split_type":[0,0,0,0,0,0,0,0,0,0,0,0,0],"sum_hessian":[5.844874E2,4.9005322E2,9.44342E1,1.3398897E2,3.5606427E2,9.334864E1,1.085559E0,9.149289E1,4.249608E1,3.2839172E2,2.7672554E1,1.0806523E1,8.2542114E1],"tree_param":{"num_deleted":"0","num_feature":"34","num_nodes":"13","size_leaf_vector":"1"}},{"base_weights":[1.0689567E-2,-1.8499763E-1,1.0419146E0,1.1514906E0,-3.8349593E-1,1.2541218E0,-1.4578475E-1,1.216679E-1,-8.3622314E-2,-5.6138273E-2,1.2316728E-1,-5.515188E-2,1.3149668E-1,-9.154045E-2,8.97158E-2],"categories":[],"categories_nodes":[],"categories_segments":[],"categories_sizes":[],"default_left":[0,0,0,0,0,0,0,0,0,0,0,0,0,0,0],"id":18,"left_children":[1,3,5,7,9,11,13,-1,-1,-1,-1,-1,-1,-1,-1],"loss_changes":[1.1401889E2,1.2644006E2,2.2895554E1,9.00808E0,1.197204E2,9.136421E0,1.250513E1,0E0,0E0,0E0,0E0,0E0,0E0,0E0,0E0],"parents":[2147483647,0,0,1,1,2,2,3,3,4,4,5,5,6,6],"right_children":[2,4,6,8,10,12,14,-1,-1,-1,-1,-1,-1,-1,-1],"split_conditions":[3.117534E-1,3.424934E-1,4.6469408E-1,4.930635E-1,4.8381382E-1,3.1192583E-1,5.1976216E-1,1.216679E-1,-8.3622314E-2,-5.6138273E-2,1.2316728E-1,-5.515188E-2,1.3149668E-1,-9.154045E-2,8.97158E-2],"split_indices":[7,22,16,11,26,1,20,0,0,0,0,0,0,0,0],"split_type":[0,0,0,0,0,0,0,0,0,0,0,0,0,0,0],"sum_hessian":[5.6306116E2,4.7394504E2,8.9116104E1,6.0667828E1,4.1327722E2,7.555984E1,1.3556267E1,5.9116947E1,1.5508789E0,3.728642E2,4.041301E1,2.2002654E0,7.3359566E1,7.870597E0,5.68567E0],"tree_param":{"num_deleted":"0","num_feature":"34","num_nodes":"15","size_leaf_vector":"1"}},{"base_weights":[1.1158027E-2,-3.7572306E-1,5.193178E-1,7.095793E-1,-8.152393E-1,1.4942745E0,2.557947E-1,5.812198E-3,1.2034722E-1,-1.0388358E-1,8.4141664E-2,1.2084402E-1,2.0434241E-1,-2.4630176E-2,9.8267704E-2],"categories":[],"categories_nodes":[],"categories_segments":[],"categories_sizes":[],"default_left":[0,0,0,0,0,0,0,0,0,0,0,0,0,0,0],"id":19,"left_children":[1,3,5,7,9,11,13,-1,-1,-1,-1,-1,-1,-1,-1],"loss_changes":[1.0740029E2,1.48535E2,6.028433E1,2.8868374E1,8.2824844E1,5.384659E0,6.85235E1,0E0,0E0,0E0,0E0,0E0,0E0,0E0,0E0],"parents":[2147483647,0,0,1,1,2,2,3,3,4,4,5,5,6,6],"right_children":[2,4,6,8,10,12,14,-1,-1,-1,-1,-1,-1,-1,-1],"split_conditions":[5.0988793E-1,1.5869428E-1,9.708887E-2,5.302291E-1,2.9172E-1,7.6908894E-2,7.804806E-1,5.812198E-3,1.2034722E-1,-1.0388358E-1,8.4141664E-2,1.2084402E-1,2.0434241E-1,-2.4630176E-2,9.8267704E-2],"split_indices":[19,19,1,10,5,1,19,0,0,0,0,0,0,0,0],"split_type":[0,0,0,0,0,0,0,0,0,0,0,0,0,0,0],"sum_hessian":[5.443031E2,3.0917624E2,2.3512685E2,8.894035E1,2.2023587E2,4.903641E1,1.8609044E2,3.883443E1,5.0105923E1,1.9437437E2,2.5861502E1,3.4355057E1,1.46813545E1,1.1045465E2,7.563578E1],"tree_param":{"num_deleted":"0","num_feature":"34","num_nodes":"15","size_leaf_vector":"1"}},{"base_weights":[1.14466585E-2,-1.9947155E-1,8.804269E-1,-3.903871E-1,1.000481E0,1.3172704E0,6.059374E-1,-5.2094776E-2,1.749445E-1,1.34135E-1,-1.0396947E-1,1.6546176E-1,1.155014E-1,-2.626406E-2,1.0412514E-1],"categories":[],"categories_nodes":[],"categories_segments":[],"categories_sizes":[],"default_left":[0,0,0,0,0,0,0,0,0,0,0,0,0,0,0],"id":20,"left_children":[1,3,5,7,9,11,13,-1,-1,-1,-1,-1,-1,-1,-1],"loss_changes":[9.572806E1,9.668327E1,1.1433548E1,1.0242367E2,4.171324E1,1.968689E-1,2.4660141E1,0E0,0E0,0E0,0E0,0E0,0E0,0E0,0E0],"parents":[2147483647,0,0,1,1,2,2,3,3,4,4,5,5,6,6],"right_children":[2,4,6,8,10,12,14,-1,-1,-1,-1,-1,-1,-1,-1],"split_conditions":[6.840222E-1,3.117534E-1,3.131522E-1,8.130471E-1,5.972669E-1,5.870634E-1,5.82887E-1,-5.2094776E-2,1.749445E-1,1.34135E-1,-1.0396947E-1,1.6546176E-1,1.155014E-1,-2.626406E-2,1.0412514E-1],"split_indices":[21,7,2,18,17,17,18,0,0,0,0,0,0,0,0],"split_type":[0,0,0,0,0,0,0,0,0,0,0,0,0,0,0],"sum_hessian":[5.203361E2,4.1932767E2,1.0100843E2,3.6235132E2,5.6976364E1,3.7511223E1,6.349721E1,3.4222708E2,2.0124243E1,4.911316E1,7.863205E0,9.195447E0,2.8315775E1,2.1331442E1,4.2165768E1],"tree_param":{"num_deleted":"0","num_feature":"34","num_nodes":"15","size_leaf_vector":"1"}},{"base_weights":[1.2363783E-2,1.1070188E0,-1.4600004E-1,1.1683204E0,-6.93374E-2,-6.53408E-1,3.9918956E-1,1.1988058E-1,-2.4657464E-2,-9.407275E-2,1.340268E-2,1.0213212E-1,-3.5612192E-2],"categories":[],"categories_nodes":[],"categories_segments":[],"categories_sizes":[],"default_left":[0,0,0,0,0,0,0,0,0,0,0,0,0],"id":21,"left_children":[1,3,5,7,-1,9,11,-1,-1,-1,-1,-1,-1],"loss_changes":[8.785895E1,7.8794556E0,1.22763306E2,2.9835434E0,0E0,5.2104416E1,1.00965195E2,0E0,0E0,0E0,0E0,0E0,0E0],"parents":[2147483647,0,0,1,1,2,2,3,3,5,5,6,6],"right_children":[2,4,6,8,-1,10,12,-1,-1,-1,-1,-1,-1],"split_conditions":[3.424934E-1,5.4255E-1,5.652796E-1,7.3698044E-1,-6.93374E-2,5.531922E-1,5.7326883E-1,1.1988058E-1,-2.4657464E-2,-9.407275E-2,1.340268E-2,1.0213212E-1,-3.5612192E-2],"split_indices":[22,2,22,15,0,21,2,0,0,0,0,0,0],"split_type":[0,0,0,0,0,0,0,0,0,0,0,0,0],"sum_hessian":[5.0488644E2,6.30534E1,4.4183304E2,6.13167E1,1.7366982E0,2.2874324E2,2.1308981E2,6.0172935E1,1.1437633E0,1.6744952E2,6.1293716E1,1.1665321E2,9.643659E1],"tree_param":{"num_deleted":"0","num_feature":"34","num_nodes":"13","size_leaf_vector":"1"}},{"base_weights":[1.166645E-2,-3.5845783E-1,4.826955E-1,6.6067547E-1,-7.7911747E-1,1.1811833E0,1.1453255E-1,1.86222E-2,1.3031745E-1,-9.6338294E-2,9.545292E-2,1.2492236E-1,-5.8164336E-2,-6.693058E-2,6.9739014E-2],"categories":[],"categories_nodes":[],"categories_segments":[],"categories_sizes":[],"default_left":[0,0,0,0,0,0,0,0,0,0,0,0,0,0,0],"id":22,"left_children":[1,3,5,7,9,11,13,-1,-1,-1,-1,-1,-1,-1,-1],"loss_changes":[8.5301186E1,1.1798363E2,5.522647E1,2.4326107E1,6.3024033E1,9.62632E0,6.53802E1,0E0,0E0,0E0,0E0,0E0,0E0,0E0,0E0],"parents":[2147483647,0,0,1,1,2,2,3,3,4,4,5,5,6,6],"right_children":[2,4,6,8,10,12,14,-1,-1,-1,-1,-1,-1,-1,-1],"split_conditions":[5.0988793E-1,1.5869428E-1,8.2934745E-2,5.3709954E-1,7.512656E-1,9.555222E-1,6.855857E-1,1.86222E-2,1.3031745E-1,-9.6338294E-2,9.545292E-2,1.2492236E-1,-5.8164336E-2,-6.693058E-2,6.9739014E-2],"split_indices":[19,19,5,22,18,27,19,0,0,0,0,0,0,0,0],"split_type":[0,0,0,0,0,0,0,0,0,0,0,0,0,0,0],"sum_hessian":[4.8729022E2,2.730066E2,2.142836E2,7.9596756E1,1.9340985E2,7.3199455E1,1.4108415E2,4.6527992E1,3.306876E1,1.7522942E2,1.8180443E1,7.075968E1,2.4397755E0,6.0105194E1,8.097896E1],"tree_param":{"num_deleted":"0","num_feature":"34","num_nodes":"15","size_leaf_vector":"1"}},{"base_weights":[1.1156859E-2,-1.590853E-1,9.531059E-1,1.0875478E0,-3.0128124E-1,9.8846364E-1,-7.430737E-2,1.18264675E-1,-9.1383554E-2,-6.895906E-2,3.0642385E-2,4.542057E-2,1.0578139E-1],"categories":[],"categories_nodes":[],"categories_segments":[],"categories_sizes":[],"default_left":[0,0,0,0,0,0,0,0,0,0,0,0,0],"id":23,"left_children":[1,3,5,7,9,11,-1,-1,-1,-1,-1,-1,-1],"loss_changes":[7.53527E1,7.088455E1,5.0480804E0,8.878387E0,8.4705124E1,2.1459198E0,0E0,0E0,0E0,0E0,0E0,0E0,0E0],"parents":[2147483647,0,0,1,1,2,2,3,3,4,4,5,5],"right_children":[2,4,6,8,10,12,-1,-1,-1,-1,-1,-1,-1],"split_conditions":[7.6971895E-1,3.424934E-1,7.3698044E-1,5.406693E-1,5.587896E-1,8.268535E-1,-7.430737E-2,1.18264675E-1,-9.1383554E-2,-6.895906E-2,3.0642385E-2,4.542057E-2,1.0578139E-1],"split_indices":[21,22,15,2,6,21,0,0,0,0,0,0,0],"split_type":[0,0,0,0,0,0,0,0,0,0,0,0,0],"sum_hessian":[4.6795325E2,3.9702792E2,7.092531E1,3.996922E1,3.5705872E2,6.988574E1,1.039563E0,3.85467E1,1.4225227E0,2.1777246E2,1.3928624E2,8.896746E0,6.0989E1],"tree_param":{"num_deleted":"0","num_feature":"34","num_nodes":"13","size_leaf_vector":"1"}},{"base_weights":[1.0918504E-2,-3.434645E-1,4.5817962E-1,6.2054425E-1,-7.4387753E-1,1.4415723E0,1.994161E-1,1.5395226E-2,1.268731E-1,-9.565697E-2,7.413338E-2,1.1393926E-1,1.8686678E-1,-2.1412704E-2,8.927096E-2],"categories":[],"categories_nodes":[],"categories_segments":[],"categories_sizes":[],"default_left":[0,0,0,0,0,0,0,0,0,0,0,0,0,0,0],"id":24,"left_children":[1,3,5,7,9,11,13,-1,-1,-1,-1,-1,-1,-1,-1],"loss_changes":[7.201654E1,9.831979E1,5.0821465E1,2.2470726E1,5.7435013E1,3.2500153E0,4.611242E1,0E0,0E0,0E0,0E0,0E0,0E0,0E0,0E0],"parents":[2147483647,0,0,1,1,2,2,3,3,4,4,5,5,6,6],"right_children":[2,4,6,8,10,12,14,-1,-1,-1,-1,-1,-1,-1,-1],"split_conditions":[5.0988793E-1,1.5869428E-1,9.708887E-2,5.3709954E-1,2.9172E-1,7.576086E-2,7.804806E-1,1.5395226E-2,1.268731E-1,-9.565697E-2,7.413338E-2,1.1393926E-1,1.8686678E-1,-2.1412704E-2,8.927096E-2],"split_indices":[19,19,1,22,5,1,19,0,0,0,0,0,0,0,0],"split_type":[0,0,0,0,0,0,0,0,0,0,0,0,0,0,0],"sum_hessian":[4.5236523E2,2.525175E2,1.9984772E2,7.394427E1,1.7857323E2,4.067966E1,1.5916806E2,4.371436E1,3.0229912E1,1.5651517E2,2.2058071E1,2.5971796E1,1.4707863E1,1.0013162E2,5.903644E1],"tree_param":{"num_deleted":"0","num_feature":"34","num_nodes":"15","size_leaf_vector":"1"}},{"base_weights":[1.1325478E-2,-1.7048995E-1,8.058303E-1,-3.3946055E-1,9.087298E-1,1.2227496E0,4.5048878E-1,-4.662503E-2,1.5957427E-1,1.2536983E-1,-9.8919086E-2,1.56907E-1,1.0726376E-1,-2.9666731E-2,1.0805618E-1],"categories":[],"categories_nodes":[],"categories_segments":[],"categories_sizes":[],"default_left":[0,0,0,0,0,0,0,0,0,0,0,0,0,0,0],"id":25,"left_children":[1,3,5,7,9,11,13,-1,-1,-1,-1,-1,-1,-1,-1],"loss_changes":[6.2937035E1,6.497317E1,1.1469093E1,7.615175E1,3.284745E1,2.2742462E-1,2.1686209E1,0E0,0E0,0E0,0E0,0E0,0E0,0E0,0E0],"parents":[2147483647,0,0,1,1,2,2,3,3,4,4,5,5,6,6],"right_children":[2,4,6,8,10,12,14,-1,-1,-1,-1,-1,-1,-1,-1],"split_conditions":[6.840222E-1,3.117534E-1,3.4690827E-1,8.130471E-1,5.972669E-1,5.870634E-1,7.012679E-1,-4.662503E-2,1.5957427E-1,1.2536983E-1,-9.8919086E-2,1.56907E-1,1.0726376E-1,-2.9666731E-2,1.0805618E-1],"split_indices":[21,7,6,18,17,17,19,0,0,0,0,0,0,0,0],"split_type":[0,0,0,0,0,0,0,0,0,0,0,0,0,0,0],"sum_hessian":[4.3374033E2,3.5360608E2,8.0134224E1,3.0633023E2,4.7275864E1,3.5749077E1,4.4385147E1,2.882067E2,1.8123518E1,4.029181E1,6.984053E0,7.951549E0,2.7797527E1,2.0547989E1,2.3837158E1],"tree_param":{"num_deleted":"0","num_feature":"34","num_nodes":"15","size_leaf_vector":"1"}},{"base_weights":[1.2400459E-2,1.0413402E0,-1.2920874E-1,1.1145804E0,-6.0165625E-2,-4.39464E-1,5.496367E-1,1.1497133E-1,-2.3882857E-2,-6.1002057E-2,1.13351785E-1,1.01159416E-1,-6.80323E-2],"categories":[],"categories_nodes":[],"categories_segments":[],"categories_sizes":[],"default_left":[0,0,0,0,0,0,0,0,0,0,0,0,0],"id":26,"left_children":[1,3,5,7,-1,9,11,-1,-1,-1,-1,-1,-1],"loss_changes":[6.1633522E1,6.828205E0,7.8569534E1,2.6205635E0,0E0,6.93183E1,6.722311E1,0E0,0E0,0E0,0E0,0E0,0E0],"parents":[2147483647,0,0,1,1,2,2,3,3,5,5,6,6],"right_children":[2,4,6,8,-1,10,12,-1,-1,-1,-1,-1,-1],"split_conditions":[3.424934E-1,5.4255E-1,4.941695E-1,7.3698044E-1,-6.0165625E-2,4.8381382E-1,5.8103764E-1,1.1497133E-1,-2.3882857E-2,-6.1002057E-2,1.13351785E-1,1.01159416E-1,-6.80323E-2],"split_indices":[22,2,8,15,0,26,2,0,0,0,0,0,0],"split_type":[0,0,0,0,0,0,0,0,0,0,0,0,0],"sum_hessian":[4.210719E2,5.017126E1,3.7090063E2,4.83381E1,1.8331594E0,2.5480074E2,1.160999E2,4.7261753E1,1.0763493E0,2.304279E2,2.4372839E1,8.452929E1,3.1570606E1],"tree_param":{"num_deleted":"0","num_feature":"34","num_nodes":"13","size_leaf_vector":"1"}},{"base_weights":[1.2452174E-2,-3.274835E-1,4.3058446E-1,6.021946E-1,-6.970521E-1,1.119446E0,6.3390814E-2,9.236383E-2,-2.181639E-2,-8.282742E-2,1.670495E-1,1.1890062E-1,-5.5850286E-2,-4.638493E-2,8.019532E-2],"categories":[],"categories_nodes":[],"categories_segments":[],"categories_sizes":[],"default_left":[0,0,0,0,0,0,0,0,0,0,0,0,0,0,0],"id":27,"left_children":[1,3,5,7,9,11,13,-1,-1,-1,-1,-1,-1,-1,-1],"loss_changes":[5.7920826E1,7.765184E1,4.6146862E1,1.7203924E1,5.1498474E1,8.07238E0,4.7196014E1,0E0,0E0,0E0,0E0,0E0,0E0,0E0,0E0],"parents":[2147483647,0,0,1,1,2,2,3,3,4,4,5,5,6,6],"right_children":[2,4,6,8,10,12,14,-1,-1,-1,-1,-1,-1,-1,-1],"split_conditions":[5.0988793E-1,1.3325357E-1,8.2934745E-2,7.9048616E-1,8.0861986E-1,9.555222E-1,6.142617E-1,9.236383E-2,-2.181639E-2,-8.282742E-2,1.670495E-1,1.1890062E-1,-5.5850286E-2,-4.638493E-2,8.019532E-2],"split_indices":[19,19,5,29,18,27,18,0,0,0,0,0,0,0,0],"split_type":[0,0,0,0,0,0,0,0,0,0,0,0,0,0,0],"sum_hessian":[4.0550482E2,2.237864E2,1.8171841E2,6.347663E1,1.6030978E2,6.2471725E1,1.192467E2,4.5516045E1,1.7960588E1,1.5250717E2,7.802608E0,6.0264812E1,2.2069106E0,6.979433E1,4.9452366E1],"tree_param":{"num_deleted":"0","num_feature":"34","num_nodes":"15","size_leaf_vector":"1"}},{"base_weights":[1.2315426E-2,-1.2813044E-1,9.8880047E-1,6.224704E-1,-3.3768055E-1,1.0202291E0,-1.6365785E-2,-1.1098972E-2,9.637891E-2,-7.9012334E-2,1.9478835E-2,6.122729E-2,1.0961342E-1],"categories":[],"categories_nodes":[],"categories_segments":[],"categories_sizes":[],"default_left":[0,0,0,0,0,0,0,0,0,0,0,0,0],"id":28,"left_children":[1,3,5,7,9,11,-1,-1,-1,-1,-1,-1,-1],"loss_changes":[5.3889214E1,5.425596E1,1.9565392E0,1.8968706E1,6.5023186E1,8.224945E-1,0E0,0E0,0E0,0E0,0E0,0E0,0E0],"parents":[2147483647,0,0,1,1,2,2,3,3,4,4,5,5],"right_children":[2,4,6,8,10,12,-1,-1,-1,-1,-1,-1,-1],"split_conditions":[8.268535E-1,2.892011E-1,7.09727E-1,3.6640278E-1,5.377125E-1,4.509263E-1,-1.6365785E-2,-1.1098972E-2,9.637891E-2,-7.9012334E-2,1.9478835E-2,6.122729E-2,1.0961342E-1],"split_indices":[21,4,15,15,6,15,0,0,0,0,0,0,0],"split_type":[0,0,0,0,0,0,0,0,0,0,0,0,0],"sum_hessian":[3.9101712E2,3.4260913E2,4.8407993E1,7.434338E1,2.6826575E2,4.7234596E1,1.1733974E0,2.382361E1,5.0519768E1,1.4476985E2,1.234959E2,8.832125E0,3.8402473E1],"tree_param":{"num_deleted":"0","num_feature":"34","num_nodes":"13","size_leaf_vector":"1"}},{"base_weights":[1.1896624E-2,8.852536E-1,-1.3629232E-1,1.0270299E0,1.2889376E-1,-4.7806117E-1,4.4394475E-1,1.1796687E-1,4.2694073E-2,-5.6483507E-2,1.0691967E-1,-6.688275E-2,1.0249307E-1,-3.075778E-2,1.047525E-1],"categories":[],"categories_nodes":[],"categories_segments":[],"categories_sizes":[],"default_left":[0,0,0,0,0,0,0,0,0,0,0,0,0,0,0],"id":29,"left_children":[1,3,5,7,9,11,13,-1,-1,-1,-1,-1,-1,-1,-1],"loss_changes":[4.9342316E1,5.798073E0,6.486341E1,3.7492256E0,7.044599E0,5.9649452E1,5.5374268E1,0E0,0E0,0E0,0E0,0E0,0E0,0E0,0E0],"parents":[2147483647,0,0,1,1,2,2,3,3,4,4,5,5,6,6],"right_children":[2,4,6,8,10,12,14,-1,-1,-1,-1,-1,-1,-1,-1],"split_conditions":[3.7801495E-1,3.7606958E-1,4.767438E-1,3.3706933E-1,2.70386E-1,4.756873E-1,1.6562167E-1,1.1796687E-1,4.2694073E-2,-5.6483507E-2,1.0691967E-1,-6.688275E-2,1.0249307E-1,-3.075778E-2,1.047525E-1],"split_indices":[22,12,8,6,21,26,7,0,0,0,0,0,0,0,0],"split_type":[0,0,0,0,0,0,0,0,0,0,0,0,0,0,0],"sum_hessian":[3.7931958E2,5.430388E1,3.250157E2,4.5430313E1,8.873568E0,2.0464981E2,1.2036589E2,3.544794E1,9.982372E0,5.3360705E0,3.5374966E0,1.820928E2,2.2557007E1,5.383096E1,6.6534935E1],"tree_param":{"num_deleted":"0","num_feature":"34","num_nodes":"15","size_leaf_vector":"1"}},{"base_weights":[1.2443514E-2,-1.5527016E-1,7.565928E-1,1.1573508E-1,-7.7819675E-1,1.213263E0,3.902295E-1,-2.2123864E-2,9.04605E-2,-9.834571E-2,9.0655744E-2,1.5313174E-1,1.0302792E-1,-2.7997095E-2,1.0439926E-1],"categories":[],"categories_nodes":[],"categories_segments":[],"categories_sizes":[],"default_left":[0,0,0,0,0,0,0,0,0,0,0,0,0,0,0],"id":30,"left_children":[1,3,5,7,9,11,13,-1,-1,-1,-1,-1,-1,-1,-1],"loss_changes":[4.5885517E1,5.075194E1,1.0839672E1,5.6022053E1,3.239798E1,1.4648438E-1,1.7377281E1,0E0,0E0,0E0,0E0,0E0,0E0,0E0,0E0],"parents":[2147483647,0,0,1,1,2,2,3,3,4,4,5,5,6,6],"right_children":[2,4,6,8,10,12,14,-1,-1,-1,-1,-1,-1,-1,-1],"split_conditions":[6.840222E-1,4.9935445E-1,1.185941E-1,1.5878074E-1,7.012679E-1,5.870634E-1,7.012679E-1,-2.2123864E-2,9.04605E-2,-9.834571E-2,9.0655744E-2,1.5313174E-1,1.0302792E-1,-2.7997095E-2,1.0439926E-1],"split_indices":[21,17,7,7,19,17,19,0,0,0,0,0,0,0,0],"split_type":[0,0,0,0,0,0,0,0,0,0,0,0,0,0,0],"sum_hessian":[3.6571933E2,2.991005E2,6.661884E1,2.0899228E2,9.010822E1,2.8625565E1,3.7993275E1,1.4694345E2,6.2048824E1,8.06933E1,9.414926E0,7.7632437E0,2.0862322E1,1.9043116E1,1.895016E1],"tree_param":{"num_deleted":"0","num_feature":"34","num_nodes":"15","size_leaf_vector":"1"}},{"base_weights":[1.2697211E-2,-3.011853E-1,3.945677E-1,5.6432474E-1,-6.5411776E-1,1.4099675E0,1.39075E-1,1.5457123E-2,1.2012805E-1,-8.9948356E-2,5.835503E-2,1.8149117E-1,1.0750439E-1,-2.0773381E-2,8.1649296E-2],"categories":[],"categories_nodes":[],"categories_segments":[],"categories_sizes":[],"default_left":[0,0,0,0,0,0,0,0,0,0,0,0,0,0,0],"id":31,"left_children":[1,3,5,7,9,11,13,-1,-1,-1,-1,-1,-1,-1,-1],"loss_changes":[4.272613E1,6.013951E1,4.1519558E1,1.4746902E1,4.2874794E1,2.4182892E0,3.0612991E1,0E0,0E0,0E0,0E0,0E0,0E0,0E0,0E0],"parents":[2147483647,0,0,1,1,2,2,3,3,4,4,5,5,6,6],"right_children":[2,4,6,8,10,12,14,-1,-1,-1,-1,-1,-1,-1,-1],"split_conditions":[5.0988793E-1,1.3325357E-1,9.708887E-2,5.3709954E-1,7.260226E-1,4.5502964E-1,7.804806E-1,1.5457123E-2,1.2012805E-1,-8.9948356E-2,5.835503E-2,1.8149117E-1,1.0750439E-1,-2.0773381E-2,8.1649296E-2],"split_indices":[19,19,1,22,18,18,19,0,0,0,0,0,0,0,0],"split_type":[0,0,0,0,0,0,0,0,0,0,0,0,0,0,0],"sum_hessian":[3.5446817E2,1.9466911E2,1.5979906E2,5.6214108E1,1.38455E2,3.1216658E1,1.285824E2,3.496427E1,2.1249836E1,1.15775856E2,2.2679146E1,1.213083E1,1.9085829E1,8.5502266E1,4.308013E1],"tree_param":{"num_deleted":"0","num_feature":"34","num_nodes":"15","size_leaf_vector":"1"}},{"base_weights":[1.3208679E-2,-1.13567546E-1,9.5541865E-1,9.264684E-1,-2.5324118E-1,9.924725E-1,-2.0280363E-2,1.1906388E-1,9.776388E-3,-5.2007016E-2,3.38251E-2,5.3419728E-2,1.08055174E-1],"categories":[],"categories_nodes":[],"categories_segments":[],"categories_sizes":[],"default_left":[0,0,0,0,0,0,0,0,0,0,0,0,0],"id":32,"left_children":[1,3,5,7,9,11,-1,-1,-1,-1,-1,-1,-1],"loss_changes":[4.0999187E1,4.419504E1,1.9481621E0,7.774313E0,4.2406853E1,1.0216942E0,0E0,0E0,0E0,0E0,0E0,0E0,0E0],"parents":[2147483647,0,0,1,1,2,2,3,3,4,4,5,5],"right_children":[2,4,6,8,10,12,-1,-1,-1,-1,-1,-1,-1],"split_conditions":[8.268535E-1,5.7523835E-1,7.09727E-1,7.488598E-2,6.1091083E-1,4.509263E-1,-2.0280363E-2,1.1906388E-1,9.776388E-3,-5.2007016E-2,3.38251E-2,5.3419728E-2,1.08055174E-1],"split_indices":[21,23,15,5,19,15,0,0,0,0,0,0,0],"split_type":[0,0,0,0,0,0,0,0,0,0,0,0,0],"sum_hessian":[3.413252E2,3.0162097E2,3.9704235E1,3.504397E1,2.66577E2,3.8612064E1,1.0921707E0,2.6241943E1,8.802026E0,1.8378859E2,8.278841E1,7.3637156E0,3.1248348E1],"tree_param":{"num_deleted":"0","num_feature":"34","num_nodes":"13","size_leaf_vector":"1"}},{"base_weights":[1.3401631E-2,-1.3041185E-1,8.276692E-1,9.998486E-1,-2.7338606E-1,1.0562208E0,-2.551692E-1,1.1214497E-1,-3.613704E-2,-3.9199635E-2,1.306246E-1,-6.0523E-2,1.12693086E-1,-8.713431E-2,8.959966E-2],"categories":[],"categories_nodes":[],"categories_segments":[],"categories_sizes":[],"default_left":[0,0,0,0,0,0,0,0,0,0,0,0,0,0,0],"id":33,"left_children":[1,3,5,7,9,11,13,-1,-1,-1,-1,-1,-1,-1,-1],"loss_changes":[3.9066093E1,4.610417E1,1.2662014E1,5.712322E0,4.7829605E1,5.5624123E0,7.542219E0,0E0,0E0,0E0,0E0,0E0,0E0,0E0,0E0],"parents":[2147483647,0,0,1,1,2,2,3,3,4,4,5,5,6,6],"right_children":[2,4,6,8,10,12,14,-1,-1,-1,-1,-1,-1,-1,-1],"split_conditions":[3.117534E-1,3.6270925E-1,4.6469408E-1,3.9084074E-1,8.130471E-1,3.1192583E-1,6.157484E-1,1.1214497E-1,-3.613704E-2,-3.9199635E-2,1.306246E-1,-6.0523E-2,1.12693086E-1,-8.713431E-2,8.959966E-2],"split_indices":[7,10,16,8,18,1,22,0,0,0,0,0,0,0,0],"split_type":[0,0,0,0,0,0,0,0,0,0,0,0,0,0,0],"sum_hessian":[3.316838E2,2.8260992E2,4.907387E1,3.1061874E1,2.5154805E2,4.054148E1,8.532391E0,2.8676294E1,2.3855815E0,2.3467851E2,1.6869532E1,1.3463955E0,3.9195084E1,5.715946E0,2.816444E0],"tree_param":{"num_deleted":"0","num_feature":"34","num_nodes":"15","size_leaf_vector":"1"}},{"base_weights":[1.3812436E-2,-1.4021282E-1,7.2554946E-1,1.9953369E-1,-5.7829535E-1,1.204501E0,3.3060437E-1,-6.6384645E-3,1.3470297E-1,-7.962739E-2,1.13398306E-1,1.5055788E-1,1.0052925E-1,-2.849461E-2,1.0159051E-1],"categories":[],"categories_nodes":[],"categories_segments":[],"categories_sizes":[],"default_left":[0,0,0,0,0,0,0,0,0,0,0,0,0,0,0],"id":34,"left_children":[1,3,5,7,9,11,13,-1,-1,-1,-1,-1,-1,-1,-1],"loss_changes":[3.561694E1,3.988022E1,1.053488E1,4.62318E1,4.4554607E1,3.0433655E-2,1.4233507E1,0E0,0E0,0E0,0E0,0E0,0E0,0E0,0E0],"parents":[2147483647,0,0,1,1,2,2,3,3,4,4,5,5,6,6],"right_children":[2,4,6,8,10,12,14,-1,-1,-1,-1,-1,-1,-1,-1],"split_conditions":[6.840222E-1,3.5763073E-1,1.185941E-1,6.695963E-1,5.5844116E-1,5.870634E-1,7.012679E-1,-6.6384645E-3,1.3470297E-1,-7.962739E-2,1.13398306E-1,1.5055788E-1,1.0052925E-1,-2.849461E-2,1.0159051E-1],"split_indices":[21,20,7,18,28,17,19,0,0,0,0,0,0,0,0],"split_type":[0,0,0,0,0,0,0,0,0,0,0,0,0,0,0],"sum_hessian":[3.229686E2,2.6617032E2,5.6798267E1,1.5021696E2,1.1595336E2,2.4742788E1,3.2055477E1,1.227202E2,2.7496773E1,1.03333626E2,1.2619735E1,7.2410593E0,1.7501728E1,1.7194893E1,1.4860586E1],"tree_param":{"num_deleted":"0","num_feature":"34","num_nodes":"15","size_leaf_vector":"1"}},{"base_weights":[1.4825695E-2,1.0884925E-1,-8.484839E-2,-2.4370143E-1,7.829948E-1,-3.7597276E-2,1.089345E-1,1.0037022E-1,-2.279615E-2],"categories":[],"categories_nodes":[],"categories_segments":[],"categories_sizes":[],"default_left":[0,0,0,0,0,0,0,0,0],"id":35,"left_children":[1,-1,3,5,7,-1,-1,-1,-1],"loss_changes":[3.363545E1,0E0,3.985841E1,4.3429417E1,1.0215256E1,0E0,0E0,0E0,0E0],"parents":[2147483647,0,0,2,2,3,3,4,4],"right_children":[2,-1,4,6,8,-1,-1,-1,-1],"split_conditions":[2.2514638E-1,1.0884925E-1,3.117534E-1,4.8381382E-1,4.6469408E-1,-3.7597276E-2,1.089345E-1,1.0037022E-1,-2.279615E-2],"split_indices":[12,0,7,26,16,0,0,0,0],"split_type":[0,0,0,0,0,0,0,0,0],"sum_hessian":[3.1243774E2,2.5698523E1,2.8673923E2,2.4298212E2,4.3757107E1,2.2170175E2,2.1280361E1,3.5921963E1,7.835141E0],"tree_param":{"num_deleted":"0","num_feature":"34","num_nodes":"9","size_leaf_vector":"1"}},{"base_weights":[1.5260431E-2,-9.939022E-2,9.174161E-1,8.8911134E-1,-2.2590779E-1,9.5684564E-1,-1.69401E-2,1.164571E-1,5.4861554E-3,-4.708792E-2,3.0022457E-2,4.6718147E-2,1.0561581E-1],"categories":[],"categories_nodes":[],"categories_segments":[],"categories_sizes":[],"default_left":[0,0,0,0,0,0,0,0,0,0,0,0,0],"id":36,"left_children":[1,3,5,7,9,11,-1,-1,-1,-1,-1,-1,-1],"loss_changes":[3.1666975E1,3.418779E1,1.6413517E0,7.068754E0,3.1296122E1,1.1338081E0,0E0,0E0,0E0,0E0,0E0,0E0,0E0],"parents":[2147483647,0,0,1,1,2,2,3,3,4,4,5,5],"right_children":[2,4,6,8,10,12,-1,-1,-1,-1,-1,-1,-1],"split_conditions":[8.268535E-1,5.7523835E-1,7.09727E-1,7.681961E-2,6.1091083E-1,4.509263E-1,-1.69401E-2,1.164571E-1,5.4861554E-3,-4.708792E-2,3.0022457E-2,4.6718147E-2,1.0561581E-1],"split_indices":[21,23,15,5,19,15,0,0,0,0,0,0,0],"split_type":[0,0,0,0,0,0,0,0,0,0,0,0,0],"sum_hessian":[3.0427853E2,2.707589E2,3.3519627E1,3.0038195E1,2.407207E2,3.2461517E1,1.0581092E0,2.2284245E1,7.753949E0,1.6431796E2,7.640273E1,6.4354415E0,2.6026073E1],"tree_param":{"num_deleted":"0","num_feature":"34","num_nodes":"13","size_leaf_vector":"1"}},{"base_weights":[1.5307331E-2,7.8607893E-1,-1.0932346E-1,1.0299352E0,1.9830424E-1,-4.2144746E-1,4.1883352E-1,1.17224455E-1,6.1004865E-3,8.3278604E-2,-6.1056223E-2,-6.086951E-2,8.338082E-2,7.501644E-2,-6.682363E-2],"categories":[],"categories_nodes":[],"categories_segments":[],"categories_sizes":[],"default_left":[0,0,0,0,0,0,0,0,0,0,0,0,0,0,0],"id":37,"left_children":[1,3,5,7,9,11,13,-1,-1,-1,-1,-1,-1,-1,-1],"loss_changes":[2.8667103E1,5.7490826E0,4.254205E1,3.9434185E0,7.3945427E0,3.859197E1,3.5064995E1,0E0,0E0,0E0,0E0,0E0,0E0,0E0,0E0],"parents":[2147483647,0,0,1,1,2,2,3,3,4,4,5,5,6,6],"right_children":[2,4,6,8,10,12,14,-1,-1,-1,-1,-1,-1,-1,-1],"split_conditions":[3.7801495E-1,3.0116934E-1,4.767438E-1,5.148428E-1,2.7455407E-1,4.6300063E-1,5.8103764E-1,1.17224455E-1,6.1004865E-3,8.3278604E-2,-6.1056223E-2,-6.086951E-2,8.338082E-2,7.501644E-2,-6.682363E-2],"split_indices":[22,2,8,16,12,26,2,0,0,0,0,0,0,0,0],"split_type":[0,0,0,0,0,0,0,0,0,0,0,0,0,0,0],"sum_hessian":[2.9652872E2,4.0535027E1,2.5599368E2,2.81174E1,1.2417627E1,1.6103133E2,9.4962364E1,2.4333624E1,3.783776E0,6.942387E0,5.47524E0,1.4057649E2,2.0454842E1,7.301718E1,2.1945179E1],"tree_param":{"num_deleted":"0","num_feature":"34","num_nodes":"15","size_leaf_vector":"1"}},{"base_weights":[1.5056824E-2,-1.1318375E-1,7.6486427E-1,-3.5646477E-1,4.6273023E-1,9.773451E-1,-2.00585E-1,-4.790424E-2,1.200704E-1,1.3708128E-1,-2.4570515E-2,-6.0421437E-2,1.0538782E-1,-8.284787E-2,8.620178E-2],"categories":[],"categories_nodes":[],"categories_segments":[],"categories_sizes":[],"default_left":[0,0,0,0,0,0,0,0,0,0,0,0,0,0,0],"id":38,"left_children":[1,3,5,7,9,11,13,-1,-1,-1,-1,-1,-1,-1,-1],"loss_changes":[2.7779823E1,3.4745476E1,8.851383E0,3.3802444E1,4.7770065E1,4.8431892E0,6.345745E0,0E0,0E0,0E0,0E0,0E0,0E0,0E0,0E0],"parents":[2147483647,0,0,1,1,2,2,3,3,4,4,5,5,6,6],"right_children":[2,4,6,8,10,12,14,-1,-1,-1,-1,-1,-1,-1,-1],"split_conditions":[3.117534E-1,5.531922E-1,4.6469408E-1,8.130471E-1,1.00029E-1,3.1192583E-1,8.1480145E-1,-4.790424E-2,1.200704E-1,1.3708128E-1,-2.4570515E-2,-6.0421437E-2,1.0538782E-1,-8.284787E-2,8.620178E-2],"split_indices":[7,21,16,18,3,1,21,0,0,0,0,0,0,0,0],"split_type":[0,0,0,0,0,0,0,0,0,0,0,0,0,0,0],"sum_hessian":[2.8700418E2,2.4581172E2,4.119246E1,1.730795E2,7.273223E1,3.375186E1,7.4406E0,1.6109105E2,1.1988445E1,3.1464981E1,4.1267246E1,1.2396495E0,3.251221E1,4.8154645E0,2.6251352E0],"tree_param":{"num_deleted":"0","num_feature":"34","num_nodes":"15","size_leaf_vector":"1"}},{"base_weights":[1.5277215E-2,1.0601459E-1,-7.2929576E-2,-3.011055E-1,4.2710385E-1,-4.064187E-2,1.3367866E-1,8.024802E-2,-6.189936E-2],"categories":[],"categories_nodes":[],"categories_segments":[],"categories_sizes":[],"default_left":[0,0,0,0,0,0,0,0,0],"id":39,"left_children":[1,-1,3,5,7,-1,-1,-1,-1],"loss_changes":[2.5967276E1,0E0,2.979093E1,3.143712E1,3.2647232E1,0E0,0E0,0E0,0E0],"parents":[2147483647,0,0,2,2,3,3,4,4],"right_children":[2,-1,4,6,8,-1,-1,-1,-1],"split_conditions":[2.2514638E-1,1.0601459E-1,4.941695E-1,4.5368823E-1,5.8103764E-1,-4.064187E-2,1.3367866E-1,8.024802E-2,-6.189936E-2],"split_indices":[12,0,8,30,2,0,0,0,0],"split_type":[0,0,0,0,0,0,0,0,0],"sum_hessian":[2.799103E2,2.0932455E1,2.5897784E2,1.7810333E2,8.087452E1,1.6804993E2,1.0053411E1,5.968893E1,2.1185593E1],"tree_param":{"num_deleted":"0","num_feature":"34","num_nodes":"9","size_leaf_vector":"1"}},{"base_weights":[1.5489646E-2,-9.989142E-2,8.2171863E-1,5.2761614E-1,-2.7842963E-1,1.0351317E0,-9.0179555E-2,-1.1472747E-2,8.715116E-2,-5.1243972E-2,4.8347652E-2,1.0763997E-1,9.934658E-5],"categories":[],"categories_nodes":[],"categories_segments":[],"categories_sizes":[],"default_left":[0,0,0,0,0,0,0,0,0,0,0,0,0],"id":40,"left_children":[1,3,5,7,9,11,-1,-1,-1,-1,-1,-1,-1],"loss_changes":[2.549249E1,2.7018745E1,1.35522175E1,1.1912092E1,3.365667E1,1.3215904E0,0E0,0E0,0E0,0E0,0E0,0E0,0E0],"parents":[2147483647,0,0,1,1,2,2,3,3,4,4,5,5],"right_children":[2,4,6,8,10,12,-1,-1,-1,-1,-1,-1,-1],"split_conditions":[8.132191E-1,2.892011E-1,1.7599717E-1,3.6640278E-1,6.876676E-1,7.09727E-1,-9.0179555E-2,-1.1472747E-2,8.715116E-2,-5.1243972E-2,4.8347652E-2,1.0763997E-1,9.934658E-5],"split_indices":[19,4,26,15,18,15,0,0,0,0,0,0,0],"split_type":[0,0,0,0,0,0,0,0,0,0,0,0,0],"sum_hessian":[2.7216098E2,2.3885417E2,3.3306805E1,5.2472847E1,1.8638133E2,2.999242E1,3.3143854E0,1.8529324E1,3.3943523E1,1.4283786E2,4.354347E1,2.8802181E1,1.1902387E0],"tree_param":{"num_deleted":"0","num_feature":"34","num_nodes":"13","size_leaf_vector":"1"}},{"base_weights":[1.4923821E-2,-8.899125E-2,8.810836E-1,8.2539994E-1,-2.0533451E-1,9.207973E-1,-2.559978E-4,1.1143406E-1,4.2488403E-3,1.5314174E-2,-5.282096E-2,3.9915215E-2,1.0345735E-1],"categories":[],"categories_nodes":[],"categories_segments":[],"categories_sizes":[],"default_left":[0,0,0,0,0,0,0,0,0,0,0,0,0],"id":41,"left_children":[1,3,5,7,9,11,-1,-1,-1,-1,-1,-1,-1],"loss_changes":[2.4041876E1,2.5555548E1,1.0064163E0,6.090809E0,2.467561E1,1.2122917E0,0E0,0E0,0E0,0E0,0E0,0E0,0E0],"parents":[2147483647,0,0,1,1,2,2,3,3,4,4,5,5],"right_children":[2,4,6,8,10,12,-1,-1,-1,-1,-1,-1,-1],"split_conditions":[8.268535E-1,5.7523835E-1,6.979572E-1,7.681961E-2,3.3232707E-1,4.509263E-1,-2.559978E-4,1.1143406E-1,4.2488403E-3,1.5314174E-2,-5.282096E-2,3.9915215E-2,1.0345735E-1],"split_indices":[21,23,15,5,20,15,0,0,0,0,0,0,0],"split_type":[0,0,0,0,0,0,0,0,0,0,0,0,0],"sum_hessian":[2.652399E2,2.3762836E2,2.7611532E1,2.6134184E1,2.1149417E2,2.6383718E1,1.2278128E0,1.8779945E1,7.3542376E0,1.00470825E2,1.1102335E2,5.531394E0,2.0852325E1],"tree_param":{"num_deleted":"0","num_feature":"34","num_nodes":"13","size_leaf_vector":"1"}},{"base_weights":[1.4892148E-2,-1.1644311E-1,6.592026E-1,1.0839017E-1,-6.980438E-1,1.1683525E-1,2.5755545E-1,-2.0741118E-2,7.926038E-2,-9.016184E-2,7.482559E-2,-3.5702284E-2,9.9051684E-2],"categories":[],"categories_nodes":[],"categories_segments":[],"categories_sizes":[],"default_left":[0,0,0,0,0,0,0,0,0,0,0,0,0],"id":42,"left_children":[1,3,5,7,9,-1,11,-1,-1,-1,-1,-1,-1],"loss_changes":[2.2121195E1,2.8483753E1,8.75029E0,3.420608E1,1.8547451E1,0E0,1.2076954E1,0E0,0E0,0E0,0E0,0E0,0E0],"parents":[2147483647,0,0,1,1,2,2,3,3,4,4,6,6],"right_children":[2,4,6,8,10,-1,12,-1,-1,-1,-1,-1,-1],"split_conditions":[6.840222E-1,4.9935445E-1,1.185941E-1,1.5878074E-1,7.012679E-1,1.1683525E-1,7.012679E-1,-2.0741118E-2,7.926038E-2,-9.016184E-2,7.482559E-2,-3.5702284E-2,9.9051684E-2],"split_indices":[21,17,7,7,19,0,19,0,0,0,0,0,0],"split_type":[0,0,0,0,0,0,0,0,0,0,0,0,0],"sum_hessian":[2.5950885E2,2.162484E2,4.326047E1,1.5654527E2,5.970312E1,1.8235388E1,2.5025084E1,1.075856E2,4.895967E1,5.266661E1,7.036509E0,1.3890766E1,1.1134317E1],"tree_param":{"num_deleted":"0","num_feature":"34","num_nodes":"13","size_leaf_vector":"1"}},{"base_weights":[1.4796259E-2,-1.7801854E-1,4.429286E-1,-5.0286096E-1,4.5145124E-1,1.3018138E0,-6.2033296E-2,3.4825232E-2,-9.128838E-2,-1.5623036E-2,1.1476517E-1,8.601732E-2,1.6536291E-1,-5.3937085E-2,7.762025E-2],"categories":[],"categories_nodes":[],"categories_segments":[],"categories_sizes":[],"default_left":[0,0,0,0,0,0,0,0,0,0,0,0,0,0,0],"id":43,"left_children":[1,3,5,7,9,11,13,-1,-1,-1,-1,-1,-1,-1,-1],"loss_changes":[2.0965498E1,3.6044376E1,3.4279625E1,4.0803497E1,2.5627659E1,3.1208878E0,2.066973E1,0E0,0E0,0E0,0E0,0E0,0E0,0E0,0E0],"parents":[2147483647,0,0,1,1,2,2,3,3,4,4,5,5,6,6],"right_children":[2,4,6,8,10,12,14,-1,-1,-1,-1,-1,-1,-1,-1],"split_conditions":[5.531922E-1,1.6562167E-1,1.00029E-1,6.019808E-1,6.142617E-1,3.483042E-1,8.268535E-1,3.4825232E-2,-9.128838E-2,-1.5623036E-2,1.1476517E-1,8.601732E-2,1.6536291E-1,-5.3937085E-2,7.762025E-2],"split_indices":[21,7,3,25,18,28,21,0,0,0,0,0,0,0,0],"split_type":[0,0,0,0,0,0,0,0,0,0,0,0,0,0,0],"sum_hessian":[2.520174E2,1.7416444E2,7.785296E1,1.1501253E2,5.9151913E1,2.8240644E1,4.961231E1,3.744206E1,7.7570465E1,3.1997955E1,2.7153957E1,1.4049272E1,1.4191374E1,3.1838345E1,1.7773966E1],"tree_param":{"num_deleted":"0","num_feature":"34","num_nodes":"15","size_leaf_vector":"1"}},{"base_weights":[1.5024812E-2,7.318147E-1,-1.023963E-1,1.07835524E-1,2.520618E-1,-4.159574E-1,2.9592165E-1,-4.6142116E-2,7.699553E-2,-5.073907E-2,1.3621962E-1,8.92674E-2,-2.2364816E-2],"categories":[],"categories_nodes":[],"categories_segments":[],"categories_sizes":[],"default_left":[0,0,0,0,0,0,0,0,0,0,0,0,0],"id":44,"left_children":[1,3,5,-1,7,9,11,-1,-1,-1,-1,-1,-1],"loss_changes":[2.0553514E1,5.4424114E0,2.6344032E1,0E0,6.16385E0,1.9856995E1,2.9052298E1,0E0,0E0,0E0,0E0,0E0,0E0],"parents":[2147483647,0,0,1,1,2,2,4,4,5,5,6,6],"right_children":[2,4,6,-1,8,10,12,-1,-1,-1,-1,-1,-1],"split_conditions":[3.1932575E-1,2.842279E-1,5.666735E-1,1.07835524E-1,4.2970255E-1,4.6775207E-1,5.3214985E-1,-4.6142116E-2,7.699553E-2,-5.073907E-2,1.3621962E-1,8.92674E-2,-2.2364816E-2],"split_indices":[12,4,22,0,13,1,4,0,0,0,0,0,0],"split_type":[0,0,0,0,0,0,0,0,0,0,0,0,0],"sum_hessian":[2.42311E2,3.3370495E1,2.089405E2,1.8650747E1,1.4719749E1,1.1688378E2,9.2056725E1,6.236707E0,8.483042E0,1.1184721E2,5.0365696E0,4.2511734E1,4.9544994E1],"tree_param":{"num_deleted":"0","num_feature":"34","num_nodes":"13","size_leaf_vector":"1"}},{"base_weights":[1.5607993E-2,-6.589948E-2,1.033769E0,6.825646E-1,-2.0313323E-1,-3.741013E-2,1.1733549E-1,1.0109609E-1,1.0385234E-2,-5.707394E-2,2.5592605E-2],"categories":[],"categories_nodes":[],"categories_segments":[],"categories_sizes":[],"default_left":[0,0,0,0,0,0,0,0,0,0,0],"id":45,"left_children":[1,3,5,7,9,-1,-1,-1,-1,-1,-1],"loss_changes":[1.970725E1,2.2741032E1,3.8977795E0,6.418351E0,3.165657E1,0E0,0E0,0E0,0E0,0E0,0E0],"parents":[2147483647,0,0,1,1,2,2,3,3,4,4],"right_children":[2,4,6,8,10,-1,-1,-1,-1,-1,-1],"split_conditions":[4.8381382E-1,3.8257438E-1,4.1287002E-1,1.16777405E-1,1.6562167E-1,-3.741013E-2,1.1733549E-1,1.0109609E-1,1.0385234E-2,-5.707394E-2,2.5592605E-2],"split_indices":[26,22,24,3,7,0,0,0,0,0,0],"split_type":[0,0,0,0,0,0,0,0,0,0,0],"sum_hessian":[2.3565094E2,2.1905045E2,1.6600504E1,3.332489E1,1.8572556E2,1.3458728E0,1.525463E1,2.0783922E1,1.2540966E1,1.03000984E2,8.272456E1],"tree_param":{"num_deleted":"0","num_feature":"34","num_nodes":"11","size_leaf_vector":"1"}},{"base_weights":[1.5283456E-2,-5.6560967E-2,1.1239415E-1,6.89801E-1,-1.8098526E-1,1.0490403E-1,2.1679297E-2,-3.31518E-2,6.2846616E-2],"categories":[],"categories_nodes":[],"categories_segments":[],"categories_sizes":[],"default_left":[0,0,0,0,0,0,0,0,0],"id":46,"left_children":[1,3,-1,5,7,-1,-1,-1,-1],"loss_changes":[1.8439528E1,2.0334034E1,0E0,5.0916166E0,2.3032484E1,0E0,0E0,0E0,0E0],"parents":[2147483647,0,0,1,1,3,3,4,4],"right_children":[2,4,-1,6,8,-1,-1,-1,-1],"split_conditions":[6.461435E-1,3.1932575E-1,1.1239415E-1,3.0116934E-1,3.117534E-1,1.0490403E-1,2.1679297E-2,-3.31518E-2,6.2846616E-2],"split_indices":[12,12,0,2,7,0,0,0,0],"split_type":[0,0,0,0,0,0,0,0,0],"sum_hessian":[2.2970622E2,2.166177E2,1.3088507E1,3.0302647E1,1.8631506E2,1.6530376E1,1.377227E1,1.5759732E2,2.8717749E1],"tree_param":{"num_deleted":"0","num_feature":"34","num_nodes":"9","size_leaf_vector":"1"}},{"base_weights":[1.5765421E-2,-1.7044881E-1,4.367425E-1,2.2451037E-1,-5.973666E-1,1.2906587E0,-4.2394888E-2,-2.3104075E-2,7.764103E-2,-6.928909E-2,9.781157E-2,6.6243775E-2,1.4966808E-1,-4.8474915E-2,7.3173724E-2],"categories":[],"categories_nodes":[],"categories_segments":[],"categories_sizes":[],"default_left":[0,0,0,0,0,0,0,0,0,0,0,0,0,0,0],"id":47,"left_children":[1,3,5,7,9,11,13,-1,-1,-1,-1,-1,-1,-1,-1],"loss_changes":[1.7772831E1,2.6648577E1,2.8498161E1,2.0898375E1,1.2091421E1,2.2467003E0,1.5935907E1,0E0,0E0,0E0,0E0,0E0,0E0,0E0,0E0],"parents":[2147483647,0,0,1,1,2,2,3,3,4,4,5,5,6,6],"right_children":[2,4,6,8,10,12,14,-1,-1,-1,-1,-1,-1,-1,-1],"split_conditions":[5.6836426E-1,3.7106973E-1,1.00029E-1,3.0842873E-1,5.117324E-1,3.4327382E-1,8.268535E-1,-2.3104075E-2,7.764103E-2,-6.928909E-2,9.781157E-2,6.6243775E-2,1.4966808E-1,-4.8474915E-2,7.3173724E-2],"split_indices":[21,17,3,13,26,12,21,0,0,0,0,0,0,0,0],"split_type":[0,0,0,0,0,0,0,0,0,0,0,0,0,0,0],"sum_hessian":[2.2476799E2,1.5624844E2,6.851954E1,8.140835E1,7.4840096E1,2.4019104E1,4.4500435E1,4.4915455E1,3.6492897E1,7.108999E1,3.7501087E0,6.9726977E0,1.7046406E1,2.8556505E1,1.594393E1],"tree_param":{"num_deleted":"0","num_feature":"34","num_nodes":"15","size_leaf_vector":"1"}},{"base_weights":[1.6316358E-2,-8.6717375E-2,7.7312344E-1,-1.8059734E-1,1.0066642E0,9.9545175E-1,-8.262217E-2,5.9575927E-2,-3.2190513E-2,-3.412866E-2,1.1481172E-1,1.04673825E-1,-5.7356316E-3],"categories":[],"categories_nodes":[],"categories_segments":[],"categories_sizes":[],"default_left":[0,0,0,0,0,0,0,0,0,0,0,0,0],"id":48,"left_children":[1,3,5,7,9,11,-1,-1,-1,-1,-1,-1,-1],"loss_changes":[1.7131401E1,2.0045477E1,1.0182785E1,1.9835741E1,3.338457E0,1.3324203E0,0E0,0E0,0E0,0E0,0E0,0E0,0E0],"parents":[2147483647,0,0,1,1,2,2,3,3,4,4,5,5],"right_children":[2,4,6,8,10,12,-1,-1,-1,-1,-1,-1,-1],"split_conditions":[8.132191E-1,4.8381382E-1,1.7599717E-1,2.0701323E-1,4.1287002E-1,7.09727E-1,-8.262217E-2,5.9575927E-2,-3.2190513E-2,-3.412866E-2,1.1481172E-1,1.04673825E-1,-5.7356316E-3],"split_indices":[19,26,26,15,24,15,0,0,0,0,0,0,0],"split_type":[0,0,0,0,0,0,0,0,0,0,0,0,0],"sum_hessian":[2.1783931E2,1.925152E2,2.5324114E1,1.7806131E2,1.4453879E1,2.2564907E1,2.7592075E0,2.692378E1,1.5113753E2,1.2385572E0,1.32153225E1,2.1522238E1,1.0426689E0],"tree_param":{"num_deleted":"0","num_feature":"34","num_nodes":"13","size_leaf_vector":"1"}},{"base_weights":[1.6214272E-2,-1.15099855E-1,5.7155764E-1,3.0597842E-1,-4.3441105E-1,-6.602396E-1,1.0291781E0,-2.561791E-2,1.0691388E-1,-7.826527E-2,5.755592E-2,-9.084662E-2,5.6231808E-2,1.1766823E-1,3.3934947E-2],"categories":[],"categories_nodes":[],"categories_segments":[],"categories_sizes":[],"default_left":[0,0,0,0,0,0,0,0,0,0,0,0,0,0,0],"id":49,"left_children":[1,3,5,7,9,11,13,-1,-1,-1,-1,-1,-1,-1,-1],"loss_changes":[1.5650876E1,2.3484762E1,2.3812393E1,3.2660133E1,3.533632E1,4.069147E0,2.6850777E0,0E0,0E0,0E0,0E0,0E0,0E0,0E0,0E0],"parents":[2147483647,0,0,1,1,2,2,3,3,4,4,5,5,6,6],"right_children":[2,4,6,8,10,12,14,-1,-1,-1,-1,-1,-1,-1,-1],"split_conditions":[6.876676E-1,9.145905E-2,5.5056834E-1,4.4373968E-1,6.3905257E-1,6.840222E-1,4.7587734E-1,-2.561791E-2,1.0691388E-1,-7.826527E-2,5.755592E-2,-9.084662E-2,5.6231808E-2,1.1766823E-1,3.3934947E-2],"split_indices":[18,3,6,19,15,21,20,0,0,0,0,0,0,0,0],"split_type":[0,0,0,0,0,0,0,0,0,0,0,0,0,0,0],"sum_hessian":[2.1271564E2,1.7267773E2,4.0037903E1,7.448953E1,9.81882E1,1.0725321E1,2.9312582E1,4.327599E1,3.1213545E1,7.318039E1,2.5007812E1,9.128745E0,1.5965759E0,2.356746E1,5.745123E0],"tree_param":{"num_deleted":"0","num_feature":"34","num_nodes":"15","size_leaf_vector":"1"}}]},"name":"gbtree"},"learner_model_param":{"base_score":"5E-1","boost_from_average":"1","num_class":"0","num_feature":"34","num_target":"1"},"objective":{"name":"binary:logistic","reg_loss_param":{"scale_pos_weight":"1"}}},"version":[2,1,3]}